{"learner":{"attributes":{"scikit_learn":"{\"_estimator_type\": \"regressor\"}"},"feature_names":["base_area","height","num_floors","shape_type","days_since_start"],"feature_types":["int","float","int","int","int"],"gradient_booster":{"model":{"gbtree_model_param":{"num_parallel_tree":"1","num_trees":"150"},"iteration_indptr":[0,1,2,3,4,5,6,7,8,9,10,11,12,13,14,15,16,17,18,19,20,21,22,23,24,25,26,27,28,29,30,31,32,33,34,35,36,37,38,39,40,41,42,43,44,45,46,47,48,49,50,51,52,53,54,55,56,57,58,59,60,61,62,63,64,65,66,67,68,69,70,71,72,73,74,75,76,77,78,79,80,81,82,83,84,85,86,87,88,89,90,91,92,93,94,95,96,97,98,99,100,101,102,103,104,105,106,107,108,109,110,111,112,113,114,115,116,117,118,119,120,121,122,123,124,125,126,127,128,129,130,131,132,133,134,135,136,137,138,139,140,141,142,143,144,145,146,147,148,149,150],"tree_info":[0,0,0,0,0,0,0,0,0,0,0,0,0,0,0,0,0,0,0,0,0,0,0,0,0,0,0,0,0,0,0,0,0,0,0,0,0,0,0,0,0,0,0,0,0,0,0,0,0,0,0,0,0,0,0,0,0,0,0,0,0,0,0,0,0,0,0,0,0,0,0,0,0,0,0,0,0,0,0,0,0,0,0,0,0,0,0,0,0,0,0,0,0,0,0,0,0,0,0,0,0,0,0,0,0,0,0,0,0,0,0,0,0,0,0,0,0,0,0,0,0,0,0,0,0,0,0,0,0,0,0,0,0,0,0,0,0,0,0,0,0,0,0,0,0,0,0,0,0,0],"trees":[{"base_weights":[3.899452E4,-3.0796466E5,1.372638E5,-5.684218E5,4.0669194E5,-4.178568E4,-2.5556719E5,-1.9055605E4,5.108798E5,-2.0887709E4,7.6452086E4,8.185425E3,5.874409E5,8.786044E3,-1.9053562E3,1.3042324E4,4.0474105E4],"categories":[],"categories_nodes":[],"categories_segments":[],"categories_sizes":[],"default_left":[0,0,0,0,0,0,0,0,0,0,0,0,0,0,0,0,0],"id":0,"left_children":[1,3,-1,5,7,-1,9,-1,11,-1,13,-1,15,-1,-1,-1,-1],"loss_changes":[3.5034193E13,7.490533E12,0E0,9.833881E11,9.923312E11,0E0,3.339366E11,0E0,2.0654667E11,0E0,2.7367985E10,0E0,1.1131316E11,0E0,0E0,0E0,0E0],"parents":[2147483647,0,0,1,1,3,3,4,4,6,6,8,8,10,10,12,12],"right_children":[2,4,-1,6,8,-1,10,-1,12,-1,14,-1,16,-1,-1,-1,-1],"split_conditions":[6E0,5.4E1,1.372638E5,2.8E1,2.4E0,-4.178568E4,3.5E0,-1.9055605E4,7E1,-2.0887709E4,3.65E0,8.185425E3,3E0,8.786044E3,-1.9053562E3,1.3042324E4,4.0474105E4],"split_indices":[1,0,0,0,1,0,1,0,0,0,1,0,3,0,0,0,0],"split_type":[0,0,0,0,0,0,0,0,0,0,0,0,0,0,0,0,0],"sum_hessian":[4.3E1,3.8E1,5E0,2.8E1,1E1,1.9E1,9E0,1E0,9E0,7E0,2E0,2E0,7E0,1E0,1E0,2E0,5E0],"tree_param":{"num_deleted":"0","num_feature":"5","num_nodes":"17","size_leaf_vector":"1"}},{"base_weights":[5.1282266E3,-3.940917E5,1.8009769E6,-3.7371086E4,-3.2304658E4,1.706637E4,1.1861945E5,-2.4445106E5,2.4506995E5,-3.149769E5,9.592672E3,2.955576E5,-1.7356799E3,-1.848195E3,-2.1070361E4,6.727764E3,2.649656E4],"categories":[],"categories_nodes":[],"categories_segments":[],"categories_sizes":[],"default_left":[0,0,0,0,0,0,0,0,0,0,0,0,0,0,0,0,0],"id":1,"left_children":[1,3,5,-1,7,-1,-1,9,11,13,-1,15,-1,-1,-1,-1,-1],"loss_changes":[3.1538108E13,2.959322E12,1.5731199E12,0E0,9.42568E11,0E0,0E0,3.069986E11,1.0538448E11,7.146983E10,0E0,1.11222686E11,0E0,0E0,0E0,0E0,0E0],"parents":[2147483647,0,0,1,1,2,2,4,4,7,7,8,8,9,9,11,11],"right_children":[2,4,6,-1,8,-1,-1,10,12,14,-1,16,-1,-1,-1,-1,-1],"split_conditions":[1.41E2,4.2E1,3E0,-3.7371086E4,3E0,1.706637E4,1.1861945E5,1.25E2,9E1,4.4E1,9.592672E3,7E1,-1.7356799E3,-1.848195E3,-2.1070361E4,6.727764E3,2.649656E4],"split_indices":[0,0,2,0,2,0,0,0,0,0,0,0,0,0,0,0,0],"split_type":[0,0,0,0,0,0,0,0,0,0,0,0,0,0,0,0,0],"sum_hessian":[4.2E1,3.5E1,7E0,2.1E1,1.4E1,1E0,6E0,8E0,6E0,7E0,1E0,5E0,1E0,1E0,6E0,3E0,2E0],"tree_param":{"num_deleted":"0","num_feature":"5","num_nodes":"17","size_leaf_vector":"1"}},{"base_weights":[-5.6245945E4,-3.427562E5,6.8859275E5,-5.1734922E5,-6.121592E4,8.052885E5,-1.7851826E4,-3.3931312E4,-1.9532119E5,-2.094132E5,2.1778238E5,5.411723E5,7.975245E4,-1.7937293E4,3.4673962E3,-1.7927474E3,-2.2812008E5,-1.9422E3,2.8841297E5,2.2813028E5,4.4758793E4,-5.894E3,-1.5302605E4,4.91175E3,1.9798537E4,1.7732172E4,5.0808545E3],"categories":[],"categories_nodes":[],"categories_segments":[],"categories_sizes":[],"default_left":[0,0,0,0,0,0,0,0,0,0,0,0,0,0,0,0,0,0,0,0,0,0,0,0,0,0,0],"id":2,"left_children":[1,3,5,7,9,11,-1,-1,13,15,17,19,-1,-1,-1,-1,21,-1,23,25,-1,-1,-1,-1,-1,-1,-1],"loss_changes":[9.198984E12,1.4921344E12,1.6205155E12,1.8428723E11,5.831148E11,8.028003E11,0E0,0E0,1.2219993E11,2.3410672E10,9.7678E10,4.0683962E11,0E0,0E0,0E0,0E0,2.9220864E9,0E0,7.326499E9,2.3320396E10,0E0,0E0,0E0,0E0,0E0,0E0,0E0],"parents":[2147483647,0,0,1,1,2,2,3,3,4,4,5,5,8,8,9,9,10,10,11,11,16,16,18,18,19,19],"right_children":[2,4,6,8,10,12,-1,-1,14,16,18,20,-1,-1,-1,-1,22,-1,24,26,-1,-1,-1,-1,-1,-1,-1],"split_conditions":[8E1,4.2E1,1.66E2,4E0,3E0,4E0,-1.7851826E4,-3.3931312E4,2.3E1,4.4E1,5.6E1,1.41E2,7.975245E4,-1.7937293E4,3.4673962E3,-1.7927474E3,1.33E2,-1.9422E3,7E1,1.15E2,4.4758793E4,-5.894E3,-1.5302605E4,4.91175E3,1.9798537E4,1.7732172E4,5.0808545E3],"split_indices":[0,0,4,2,2,2,0,0,0,0,4,0,0,0,0,0,4,0,4,0,0,0,0,0,0,0,0],"split_type":[0,0,0,0,0,0,0,0,0,0,0,0,0,0,0,0,0,0,0,0,0,0,0,0,0,0,0],"sum_hessian":[4.1E1,3E1,1.1E1,1.8E1,1.2E1,1E1,1E0,1.5E1,3E0,8E0,4E0,8E0,2E0,2E0,1E0,1E0,7E0,1E0,3E0,4E0,4E0,2E0,5E0,1E0,2E0,2E0,2E0],"tree_param":{"num_deleted":"0","num_feature":"5","num_nodes":"27","size_leaf_vector":"1"}},{"base_weights":[7.7469516E4,-2.3212217E5,1.513623E6,-4.5745203E5,3.8613273E4,1.7474974E6,-1.0721167E4,-5.1989957E4,-2.9615504E4,-1.2041757E5,2.4636405E5,3.4840996E4,1.2237929E5,-1.9890713E4,1.5211616E4,-2.0047112E5,8.980731E4,3.5355438E5,-1.8334762E4,-1.8907035E3,-1.9760178E4,9.152468E3,1.08294E3,2.4781996E4,-1.8839325E3],"categories":[],"categories_nodes":[],"categories_segments":[],"categories_sizes":[],"default_left":[0,0,0,0,0,0,0,0,0,0,0,0,0,0,0,0,0,0,0,0,0,0,0,0,0],"id":3,"left_children":[1,3,5,7,9,11,-1,13,-1,15,17,-1,-1,-1,-1,19,21,23,-1,-1,-1,-1,-1,-1,-1],"loss_changes":[2.2582403E13,2.5798647E12,3.8743436E12,3.1136363E11,6.904422E11,1.5427552E12,0E0,3.402432E11,0E0,2.1995474E11,6.4050594E11,0E0,0E0,0E0,0E0,1.8557888E11,1.5253473E10,1.9614145E11,0E0,0E0,0E0,0E0,0E0,0E0,0E0],"parents":[2147483647,0,0,1,1,2,2,3,3,4,4,5,5,7,7,9,9,10,10,15,15,16,16,17,17],"right_children":[2,4,6,8,10,12,-1,14,-1,16,18,-1,-1,-1,-1,20,22,24,-1,-1,-1,-1,-1,-1,-1],"split_conditions":[5.7E0,3.2E0,4E0,1.27E2,3E0,5.99E0,-1.0721167E4,2.3E0,-2.9615504E4,1.4E2,4E0,3.4840996E4,1.2237929E5,-1.9890713E4,1.5211616E4,6.3E1,3.54E0,4E0,-1.8334762E4,-1.8907035E3,-1.9760178E4,9.152468E3,1.08294E3,2.4781996E4,-1.8839325E3],"split_indices":[1,1,3,4,3,1,0,1,0,4,3,0,0,0,0,4,1,2,0,0,0,0,0,0,0],"split_type":[0,0,0,0,0,0,0,0,0,0,0,0,0,0,0,0,0,0,0,0,0,0,0,0,0],"sum_hessian":[4.9E1,4.1E1,8E0,2.2E1,1.9E1,7E0,1E0,2E0,2E1,1.1E1,8E0,2E0,5E0,1E0,1E0,8E0,3E0,7E0,1E0,4E0,4E0,1E0,2E0,6E0,1E0],"tree_param":{"num_deleted":"0","num_feature":"5","num_nodes":"25","size_leaf_vector":"1"}},{"base_weights":[8.729216E4,-2.0899936E5,1.5948748E6,-4.0268625E5,2.3914828E5,4.1987637E4,1.1951786E5,-3.2208004E4,-2.2065005E5,2.6803512E4,4.2613387E4,-1.8022602E4,-1.706675E4,-2.4465134E5,1.780915E5,-1.1102658E4,4.271323E3,-1.5691312E3,-1.852602E4,1.8892596E4,-1.9298811E2],"categories":[],"categories_nodes":[],"categories_segments":[],"categories_sizes":[],"default_left":[0,0,0,0,0,0,0,0,0,0,0,0,0,0,0,0,0,0,0,0,0],"id":4,"left_children":[1,3,5,7,9,-1,-1,-1,11,13,-1,-1,15,17,19,-1,-1,-1,-1,-1,-1],"loss_changes":[2.1774155E13,3.6551147E12,1.449455E12,5.895482E11,1.2813573E12,0E0,0E0,0E0,2.2210773E11,4.5424892E11,0E0,0E0,8.729775E10,4.796195E10,1.7461438E11,0E0,0E0,0E0,0E0,0E0,0E0],"parents":[2147483647,0,0,1,1,2,2,3,3,4,4,8,8,9,9,12,12,13,13,14,14],"right_children":[2,4,6,8,10,-1,-1,-1,12,14,-1,-1,16,18,20,-1,-1,-1,-1,-1,-1],"split_conditions":[1.44E2,5.4E1,5.95E0,2.5E1,5.232E0,4.1987637E4,1.1951786E5,-3.2208004E4,3.5E0,3.2E0,4.2613387E4,-1.8022602E4,7.1E1,7.8E1,3E0,-1.1102658E4,4.271323E3,-1.5691312E3,-1.852602E4,1.8892596E4,-1.9298811E2],"split_indices":[0,0,1,0,1,0,0,0,1,1,0,0,4,0,2,0,0,0,0,0,0],"split_type":[0,0,0,0,0,0,0,0,0,0,0,0,0,0,0,0,0,0,0,0,0],"sum_hessian":[4.7E1,4E1,7E0,2.8E1,1.2E1,3E0,4E0,1.5E1,1.3E1,9E0,3E0,9E0,4E0,3E0,6E0,1E0,3E0,1E0,2E0,3E0,3E0],"tree_param":{"num_deleted":"0","num_feature":"5","num_nodes":"21","size_leaf_vector":"1"}},{"base_weights":[-6.527717E4,-2.980711E5,1.2232491E6,-5.0945672E5,6.8813486E3,2.1660676E4,8.7029586E4,-3.2738504E4,-1.7873973E4,-8.293623E4,4.870793E4,-1.4784306E5,7.151794E4,-1.0994983E4,8.311113E3,6.1787744E3,-2.5737075E3],"categories":[],"categories_nodes":[],"categories_segments":[],"categories_sizes":[],"default_left":[0,0,0,0,0,0,0,0,0,0,0,0,0,0,0,0,0],"id":5,"left_children":[1,3,5,7,9,-1,-1,-1,-1,11,-1,13,15,-1,-1,-1,-1],"loss_changes":[1.5662631E13,2.8398584E12,1.0438637E12,3.648887E10,1.4409467E12,0E0,0E0,0E0,0E0,1.9102577E11,0E0,1.57192E11,2.6015058E10,0E0,0E0,0E0,0E0],"parents":[2147483647,0,0,1,1,2,2,3,3,4,4,9,9,11,11,12,12],"right_children":[2,4,6,8,10,-1,-1,-1,-1,12,-1,14,16,-1,-1,-1,-1],"split_conditions":[1.41E2,4.2E1,3E0,2.5E1,5E0,2.1660676E4,8.7029586E4,-3.2738504E4,-1.7873973E4,3E0,4.870793E4,1.25E2,7E1,-1.0994983E4,8.311113E3,6.1787744E3,-2.5737075E3],"split_indices":[0,0,2,0,2,0,0,0,0,2,0,0,0,0,0,0,0],"split_type":[0,0,0,0,0,0,0,0,0,0,0,0,0,0,0,0,0],"sum_hessian":[5E1,4.3E1,7E0,2.5E1,1.8E1,2E0,5E0,2E1,5E0,1.7E1,1E0,1.2E1,5E0,1.1E1,1E0,4E0,1E0],"tree_param":{"num_deleted":"0","num_feature":"5","num_nodes":"17","size_leaf_vector":"1"}},{"base_weights":[1.1651284E5,-1.9711328E5,1.3580715E6,-2.963708E5,4.7755747E5,3.7068137E4,1.0960358E5,-5.0172375E5,-1.2945964E5,-8.451139E3,4.004238E4,-3.1497307E4,-5.9914873E3,-1.5369429E4,1.0183844E4,7.3745576E3,-5.1270806E3],"categories":[],"categories_nodes":[],"categories_segments":[],"categories_sizes":[],"default_left":[0,0,0,0,0,0,0,0,0,0,0,0,0,0,0,0,0],"id":6,"left_children":[1,3,5,7,9,-1,-1,11,13,-1,-1,-1,-1,-1,15,-1,-1],"loss_changes":[1.7400643E13,2.5523152E12,1.9938211E12,1.0318693E12,6.8091996E11,0E0,0E0,7.828144E10,3.3876584E11,0E0,0E0,0E0,0E0,0E0,1.1830796E11,0E0,0E0],"parents":[2147483647,0,0,1,1,2,2,3,3,4,4,7,7,8,8,14,14],"right_children":[2,4,6,8,10,-1,-1,12,14,-1,-1,-1,-1,-1,16,-1,-1],"split_conditions":[1.41E2,5.5E0,5.95E0,2.5E1,2.3E1,3.7068137E4,1.0960358E5,4.6E0,3.5E0,-8.451139E3,4.004238E4,-3.1497307E4,-5.9914873E3,-1.5369429E4,3.65E0,7.3745576E3,-5.1270806E3],"split_indices":[0,1,1,0,0,0,0,1,1,0,0,0,0,0,1,0,0],"split_type":[0,0,0,0,0,0,0,0,0,0,0,0,0,0,0,0,0],"sum_hessian":[4.3E1,3.5E1,8E0,3.1E1,4E0,4E0,4E0,1.3E1,1.8E1,1E0,3E0,1.2E1,1E0,9E0,9E0,4E0,5E0],"tree_param":{"num_deleted":"0","num_feature":"5","num_nodes":"17","size_leaf_vector":"1"}},{"base_weights":[5.2097957E4,-2.1348647E5,1.52434E6,-3.6376547E5,2.0211148E5,3.9503254E4,1.0434261E5,-2.9825793E4,-1.6142745E5,5.0692262E5,-1.3638492E5,-2.1072806E5,2.1809062E3,5.9801626E3,5.684394E5,4.5526875E3,-1.6730404E4,-1.4159325E3,-1.3733886E4,-1.0079546E4,6.89417E3,3.8189465E4,8.886979E3,3.9951787E3,-2.2992375E3],"categories":[],"categories_nodes":[],"categories_segments":[],"categories_sizes":[],"default_left":[0,0,0,0,0,0,0,0,0,0,0,0,0,0,0,0,0,0,0,0,0,0,0,0,0],"id":7,"left_children":[1,3,5,7,9,-1,-1,-1,11,13,15,17,19,-1,21,23,-1,-1,-1,-1,-1,-1,-1,-1,-1],"loss_changes":[1.7920632E13,2.509291E12,1.5649682E11,7.0211574E11,1.2040889E12,0E0,0E0,0E0,1.0531747E11,9.366143E10,1.2173321E11,2.8599714E10,9.603188E10,0E0,4.874371E10,1.3189977E10,0E0,0E0,0E0,0E0,0E0,0E0,0E0,0E0,0E0],"parents":[2147483647,0,0,1,1,2,2,3,3,4,4,8,8,9,9,10,10,11,11,12,12,14,14,15,15],"right_children":[2,4,6,8,10,-1,-1,-1,12,14,16,18,20,-1,22,24,-1,-1,-1,-1,-1,-1,-1,-1,-1],"split_conditions":[1.44E2,5.4E1,4E0,2.5E1,6.3E1,3.9503254E4,1.0434261E5,-2.9825793E4,3E0,7E1,1.33E2,2E0,7.1E1,5.9801626E3,5.7E1,6E1,-1.6730404E4,-1.4159325E3,-1.3733886E4,-1.0079546E4,6.89417E3,3.8189465E4,8.886979E3,3.9951787E3,-2.2992375E3],"split_indices":[0,0,2,0,4,0,0,0,2,0,4,3,4,0,4,0,0,0,0,0,0,0,0,0,0],"split_type":[0,0,0,0,0,0,0,0,0,0,0,0,0,0,0,0,0,0,0,0,0,0,0,0,0],"sum_hessian":[4.4E1,3.8E1,6E0,2.8E1,1E1,2E0,4E0,1.6E1,1.2E1,5E0,5E0,9E0,3E0,1E0,4E0,3E0,2E0,1E0,8E0,1E0,2E0,3E0,1E0,1E0,2E0],"tree_param":{"num_deleted":"0","num_feature":"5","num_nodes":"25","size_leaf_vector":"1"}},{"base_weights":[4.614865E4,-1.6863464E5,1.1441558E6,-3.2307456E5,2.6521662E5,1.608783E4,7.47283E4,-4.2400788E5,-1.3771636E5,2.3207143E4,3.7345742E4,-2.7203227E4,-8.1465337E3,-1.8390916E5,4.67675E4,-1.4579183E4,1.0807046E5,-1.2070504E4,-1.3734562E3,6.241654E3,-2.0325787E3,-6.6214874E2,8.045932E3],"categories":[],"categories_nodes":[],"categories_segments":[],"categories_sizes":[],"default_left":[0,0,0,0,0,0,0,0,0,0,0,0,0,0,0,0,0,0,0,0,0,0,0],"id":8,"left_children":[1,3,5,7,9,-1,-1,11,13,15,-1,-1,-1,17,19,-1,21,-1,-1,-1,-1,-1,-1],"loss_changes":[1.0097955E13,2.4978276E12,2.8733814E11,4.4674502E11,8.500432E11,0E0,0E0,8.239789E10,1.0234105E11,1.8439009E11,0E0,0E0,0E0,2.0416037E10,1.737708E10,0E0,2.008078E10,0E0,0E0,0E0,0E0,0E0,0E0],"parents":[2147483647,0,0,1,1,2,2,3,3,4,4,7,7,8,8,9,9,13,13,14,14,16,16],"right_children":[2,4,6,8,10,-1,-1,12,14,16,-1,-1,-1,18,20,-1,22,-1,-1,-1,-1,-1,-1],"split_conditions":[1.41E2,6.8E1,1.44E2,2.8E1,3.65E0,1.608783E4,7.47283E4,4.6E0,3E0,2.4E0,3.7345742E4,-2.7203227E4,-8.1465337E3,4.2E0,4.4E1,-1.4579183E4,2.75E0,-1.2070504E4,-1.3734562E3,6.241654E3,-2.0325787E3,-6.6214874E2,8.045932E3],"split_indices":[0,0,0,0,1,0,0,1,2,1,0,0,0,1,0,0,1,0,0,0,0,0,0],"split_type":[0,0,0,0,0,0,0,0,0,0,0,0,0,0,0,0,0,0,0,0,0,0,0],"sum_hessian":[4.1E1,3.5E1,6E0,2.6E1,9E0,1E0,5E0,1.6E1,1E1,6E0,3E0,1.4E1,2E0,8E0,2E0,1E0,5E0,7E0,1E0,1E0,1E0,1E0,4E0],"tree_param":{"num_deleted":"0","num_feature":"5","num_nodes":"23","size_leaf_vector":"1"}},{"base_weights":[-2.3997506E4,-1.884687E5,8.17416E4,-3.8538703E5,7.018965E4,-2.634837E4,-1.9211114E5,-3.1174537E4,2.1614656E4,-1.4757895E4,3.9303486E3,-1.8351983E5,9.0780086E4,-5.857351E3,-1.5930522E4,1.9483884E3,1.6717068E4],"categories":[],"categories_nodes":[],"categories_segments":[],"categories_sizes":[],"default_left":[0,0,0,0,0,0,0,0,0,0,0,0,0,0,0,0,0],"id":9,"left_children":[1,3,-1,5,7,-1,9,11,-1,-1,-1,13,15,-1,-1,-1,-1],"loss_changes":[1.0745494E13,2.1663018E12,0E0,1.6497403E11,5.698523E11,0E0,1.1322769E11,2.9534814E11,0E0,0E0,0E0,2.337874E10,8.952259E10,0E0,0E0,0E0,0E0],"parents":[2147483647,0,0,1,1,3,3,4,4,6,6,7,7,11,11,12,12],"right_children":[2,4,-1,6,8,-1,10,12,-1,-1,-1,14,16,-1,-1,-1,-1],"split_conditions":[6E0,4.2E1,8.17416E4,2.5E1,1.32E2,-2.634837E4,4.5E0,3.5E0,2.1614656E4,-1.4757895E4,3.9303486E3,7.8E1,5.232E0,-5.857351E3,-1.5930522E4,1.9483884E3,1.6717068E4],"split_indices":[1,0,0,0,0,0,1,1,0,0,0,0,1,0,0,0,0],"split_type":[0,0,0,0,0,0,0,0,0,0,0,0,0,0,0,0,0],"sum_hessian":[4.5E1,4.1E1,4E0,2.3E1,1.8E1,1.7E1,6E0,1.4E1,4E0,5E0,1E0,6E0,8E0,4E0,2E0,7E0,1E0],"tree_param":{"num_deleted":"0","num_feature":"5","num_nodes":"17","size_leaf_vector":"1"}},{"base_weights":[-3.781477E4,-1.4321088E5,7.576447E4,-3.1943688E5,5.3667746E4,-1.4639616E5,-2.0138541E4,-9.477557E4,2.1000903E5,-1.6817287E4,7.658392E3,-1.5612283E5,8.228647E4,3.250134E5,-1.4600512E4,-4.6797897E2,-1.5222301E4,7.452641E3,1.6144899E3,8.6241E3,3.3659836E4],"categories":[],"categories_nodes":[],"categories_segments":[],"categories_sizes":[],"default_left":[0,0,0,0,0,0,0,0,0,0,0,0,0,0,0,0,0,0,0,0,0],"id":10,"left_children":[1,3,-1,5,7,9,-1,11,13,-1,-1,15,17,19,-1,-1,-1,-1,-1,-1,-1],"loss_changes":[7.308662E12,1.7172047E12,0E0,2.377279E10,5.768914E11,1.8254083E11,0E0,1.540563E11,7.0473744E11,0E0,0E0,1.427582E11,5.944486E9,3.4715284E11,0E0,0E0,0E0,0E0,0E0,0E0,0E0],"parents":[2147483647,0,0,1,1,3,3,4,4,5,5,7,7,8,8,11,11,12,12,13,13],"right_children":[2,4,-1,6,8,10,-1,12,14,-1,-1,16,18,20,-1,-1,-1,-1,-1,-1,-1],"split_conditions":[5E0,3.2E0,7.576447E4,1.27E2,3E0,2.75E0,-2.0138541E4,1.4E2,4E0,-1.6817287E4,7.658392E3,3.65E0,3.54E0,1.33E2,-1.4600512E4,-4.6797897E2,-1.5222301E4,7.452641E3,1.6144899E3,8.6241E3,3.3659836E4],"split_indices":[2,1,0,4,3,1,0,4,3,0,0,1,1,4,0,0,0,0,0,0,0],"split_type":[0,0,0,0,0,0,0,0,0,0,0,0,0,0,0,0,0,0,0,0,0],"sum_hessian":[5.1E1,4.8E1,3E0,2.5E1,2.3E1,3E0,2.2E1,1.2E1,1.1E1,2E0,1E0,9E0,3E0,9E0,2E0,4E0,5E0,1E0,2E0,6E0,3E0],"tree_param":{"num_deleted":"0","num_feature":"5","num_nodes":"21","size_leaf_vector":"1"}},{"base_weights":[3.3453496E4,-2.1417281E5,7.3227356E5,-3.9276588E5,-5.250639E4,2.878782E5,7.7811086E4,-2.5147072E4,-8.332081E3,-1.4838695E5,9.787775E4,-1.3059734E4,3.9119288E5,-4.2737332E4,-1.6524314E5,-8.108875E3,2.058916E5,1.3226393E4,3.2723014E4,-3.9839512E3,1.3759125E2,-1.0696401E4,-1.4391375E3,6.0894E3,-6.900287E3,3.7640024E3,1.3961992E4],"categories":[],"categories_nodes":[],"categories_segments":[],"categories_sizes":[],"default_left":[0,0,0,0,0,0,0,0,0,0,0,0,0,0,0,0,0,0,0,0,0,0,0,0,0,0,0],"id":11,"left_children":[1,3,5,7,9,11,-1,-1,-1,13,15,-1,17,19,21,23,25,-1,-1,-1,-1,-1,-1,-1,-1,-1,-1],"loss_changes":[7.9439137E12,9.610426E11,2.6374145E12,4.8849486E10,2.8848318E11,5.0298592E11,0E0,0E0,0E0,1.4308147E10,9.325372E10,0E0,6.40754E10,3.3487826E9,1.4130184E10,7.02502E10,7.532708E8,0E0,0E0,0E0,0E0,0E0,0E0,0E0,0E0,0E0,0E0],"parents":[2147483647,0,0,1,1,2,2,3,3,4,4,5,5,9,9,10,10,12,12,13,13,14,14,15,15,16,16],"right_children":[2,4,6,8,10,12,-1,-1,-1,14,16,-1,18,20,22,24,26,-1,-1,-1,-1,-1,-1,-1,-1,-1,-1],"split_conditions":[8E1,2.5E1,5.95E0,4.6E0,3E0,2.4E0,7.7811086E4,-2.5147072E4,-8.332081E3,1.33E2,7.1E1,-1.3059734E4,1.79E2,5E1,3.5E0,3.8E0,2.8E1,1.3226393E4,3.2723014E4,-3.9839512E3,1.3759125E2,-1.0696401E4,-1.4391375E3,6.0894E3,-6.900287E3,3.7640024E3,1.3961992E4],"split_indices":[0,0,1,1,2,1,0,0,0,4,4,0,0,0,1,1,0,0,0,0,0,0,0,0,0,0,0],"split_type":[0,0,0,0,0,0,0,0,0,0,0,0,0,0,0,0,0,0,0,0,0,0,0,0,0,0,0],"sum_hessian":[4.4E1,3.3E1,1.1E1,1.5E1,1.8E1,7E0,4E0,1.3E1,2E0,1.1E1,7E0,1E0,6E0,2E0,9E0,4E0,3E0,4E0,2E0,1E0,1E0,8E0,1E0,2E0,2E0,1E0,2E0],"tree_param":{"num_deleted":"0","num_feature":"5","num_nodes":"27","size_leaf_vector":"1"}},{"base_weights":[2.99608E3,-2.0259897E5,1.0048974E6,-3.3590922E5,-1.032043E4,4.5636156E5,8.636057E4,-2.1680092E4,-1.0326593E4,-1.7409212E5,1.2172898E5,7.0318496E3,3.0711191E4,-2.580508E3,-1.1200458E4,5.0228703E4,1.6309201E4,5.771761E3,-3.50693E3],"categories":[],"categories_nodes":[],"categories_segments":[],"categories_sizes":[],"default_left":[0,0,0,0,0,0,0,0,0,0,0,0,0,0,0,0,0,0,0],"id":12,"left_children":[1,3,5,7,9,11,-1,-1,-1,13,15,-1,-1,-1,-1,17,-1,-1,-1],"loss_changes":[9.678945E12,9.9620854E11,1.2496111E12,3.3598996E10,3.888333E11,3.411601E10,0E0,0E0,0E0,5.165957E9,9.366236E10,0E0,0E0,0E0,0E0,4.5587464E10,0E0,0E0,0E0],"parents":[2147483647,0,0,1,1,2,2,3,3,4,4,5,5,9,9,10,10,15,15],"right_children":[2,4,6,8,10,12,-1,-1,-1,14,16,-1,-1,-1,-1,18,-1,-1,-1],"split_conditions":[1.41E2,4.2E1,5.95E0,2.8E1,3.2E0,3E0,8.636057E4,-2.1680092E4,-1.0326593E4,4.8E1,4.5E0,7.0318496E3,3.0711191E4,-2.580508E3,-1.1200458E4,3.8E0,1.6309201E4,5.771761E3,-3.50693E3],"split_indices":[0,0,1,0,1,1,0,0,0,0,1,0,0,0,0,1,0,0,0],"split_type":[0,0,0,0,0,0,0,0,0,0,0,0,0,0,0,0,0,0,0],"sum_hessian":[4.5E1,3.8E1,7E0,2.2E1,1.6E1,4E0,3E0,1.8E1,4E0,7E0,9E0,1E0,3E0,1E0,6E0,7E0,2E0,5E0,2E0],"tree_param":{"num_deleted":"0","num_feature":"5","num_nodes":"19","size_leaf_vector":"1"}},{"base_weights":[3.2958402E4,-1.0432228E5,7.077147E4,-2.6793953E5,1.7830198E5,-2.2451686E4,-1.039376E5,5.584914E4,4.3652844E5,-1.7422608E5,2.9311475E4,-1.6564545E5,1.4808572E5,6.8208936E3,2.9329184E4,-1.1231762E4,-2.503093E3,4.0779731E3,-3.7592249E3,4.6947748E2,-1.3564621E4,4.7136846E3,1.5656832E4],"categories":[],"categories_nodes":[],"categories_segments":[],"categories_sizes":[],"default_left":[0,0,0,0,0,0,0,0,0,0,0,0,0,0,0,0,0,0,0,0,0,0,0],"id":13,"left_children":[1,3,-1,5,7,-1,9,11,13,15,17,19,21,-1,-1,-1,-1,-1,-1,-1,-1,-1,-1],"loss_changes":[7.363515E12,1.9899469E12,0E0,4.3161066E11,4.8154922E11,0E0,1.1749733E11,2.6968857E11,2.884069E10,5.9394785E9,2.20328E10,4.3701256E10,5.011918E10,0E0,0E0,0E0,0E0,0E0,0E0,0E0,0E0,0E0,0E0],"parents":[2147483647,0,0,1,1,3,3,4,4,6,6,7,7,8,8,9,9,10,10,11,11,12,12],"right_children":[2,4,-1,6,8,-1,10,12,14,16,18,20,22,-1,-1,-1,-1,-1,-1,-1,-1,-1,-1],"split_conditions":[6E0,5.4E1,7.077147E4,2.5E1,1.41E2,-2.2451686E4,3.2E0,3.2E0,3E0,1.57E2,4.4E1,7.8E1,5.232E0,6.8208936E3,2.9329184E4,-1.1231762E4,-2.503093E3,4.0779731E3,-3.7592249E3,4.6947748E2,-1.3564621E4,4.7136846E3,1.5656832E4],"split_indices":[1,0,0,0,0,0,1,1,1,4,0,0,1,0,0,0,0,0,0,0,0,0,0],"split_type":[0,0,0,0,0,0,0,0,0,0,0,0,0,0,0,0,0,0,0,0,0,0,0],"sum_hessian":[4.5E1,4.1E1,4E0,2.6E1,1.5E1,1.5E1,1.1E1,1.1E1,4E0,7E0,4E0,3E0,8E0,1E0,3E0,6E0,1E0,3E0,1E0,1E0,2E0,6E0,2E0],"tree_param":{"num_deleted":"0","num_feature":"5","num_nodes":"23","size_leaf_vector":"1"}},{"base_weights":[1.7911051E3,-9.748598E4,6.560348E4,-2.934427E5,1.1180905E5,-3.92995E4,-1.8946523E4,-5.666475E4,2.3280358E5,-1.0153223E4,6.6162676E3,-1.25158016E5,7.736466E4,3.3625016E5,-1.3446101E4,-5.60555E2,-1.017694E4,6.51771E3,1.8440325E3,6.494744E3,3.529238E4],"categories":[],"categories_nodes":[],"categories_segments":[],"categories_sizes":[],"default_left":[0,0,0,0,0,0,0,0,0,0,0,0,0,0,0,0,0,0,0,0,0],"id":14,"left_children":[1,3,-1,5,7,9,-1,11,13,-1,-1,15,17,19,-1,-1,-1,-1,-1,-1,-1],"loss_changes":[5.2000216E12,1.8373714E12,0E0,1.1813152E11,4.6164876E11,7.695716E10,0E0,1.0148392E11,6.8980284E11,0E0,0E0,3.4457534E10,2.4928543E9,5.6824745E11,0E0,0E0,0E0,0E0,0E0,0E0,0E0],"parents":[2147483647,0,0,1,1,3,3,4,4,5,5,7,7,8,8,11,11,12,12,13,13],"right_children":[2,4,-1,6,8,10,-1,12,14,-1,-1,16,18,20,-1,-1,-1,-1,-1,-1,-1],"split_conditions":[6.2E0,3.2E0,6.560348E4,1.27E2,3E0,2.75E0,-1.8946523E4,1.4E2,4E0,-1.0153223E4,6.6162676E3,3.65E0,3.54E0,1.33E2,-1.3446101E4,-5.60555E2,-1.017694E4,6.51771E3,1.8440325E3,6.494744E3,3.529238E4],"split_indices":[1,1,0,4,3,1,0,4,3,0,0,1,1,4,0,0,0,0,0,0,0],"split_type":[0,0,0,0,0,0,0,0,0,0,0,0,0,0,0,0,0,0,0,0,0],"sum_hessian":[4.6E1,4.3E1,3E0,2.2E1,2.1E1,2E0,2E1,9E0,1.2E1,1E0,1E0,6E0,3E0,1E1,2E0,2E0,4E0,1E0,2E0,6E0,4E0],"tree_param":{"num_deleted":"0","num_feature":"5","num_nodes":"21","size_leaf_vector":"1"}},{"base_weights":[2.9317783E4,-1.1712865E5,7.521625E4,-1.8650252E5,2.5638392E5,-2.5949756E5,-3.7396105E4,-2.9690164E3,3.8862766E5,-2.0641697E4,-1.9573044E5,5.449134E4,-1.1718856E4,4.123826E3,2.708516E4,-1.609145E4,-5.384769E3,-6.749081E3,5.3654355E3],"categories":[],"categories_nodes":[],"categories_segments":[],"categories_sizes":[],"default_left":[0,0,0,0,0,0,0,0,0,0,0,0,0,0,0,0,0,0,0],"id":15,"left_children":[1,3,-1,5,7,9,11,-1,13,-1,15,17,-1,-1,-1,-1,-1,-1,-1],"loss_changes":[8.394283E12,1.1361208E12,0E0,3.821209E11,3.0237416E11,6.2029824E10,1.9928202E11,0E0,6.940813E10,0E0,9.880561E10,6.2554972E10,0E0,0E0,0E0,0E0,0E0,0E0,0E0],"parents":[2147483647,0,0,1,1,3,3,4,4,5,5,6,6,8,8,10,10,11,11],"right_children":[2,4,-1,6,8,10,12,-1,14,-1,16,18,-1,-1,-1,-1,-1,-1,-1],"split_conditions":[5.99E0,4.6E0,7.521625E4,3.2E0,1.28E2,3E0,3.8E0,-2.9690164E3,1E0,-2.0641697E4,2.9E0,1E0,-1.1718856E4,4.123826E3,2.708516E4,-1.609145E4,-5.384769E3,-6.749081E3,5.3654355E3],"split_indices":[1,1,0,1,4,3,1,0,3,0,1,3,0,0,0,0,0,0,0],"split_type":[0,0,0,0,0,0,0,0,0,0,0,0,0,0,0,0,0,0,0],"sum_hessian":[4.5E1,4.1E1,4E0,3.5E1,6E0,2.3E1,1.2E1,2E0,4E0,8E0,1.5E1,8E0,4E0,1E0,3E0,8E0,7E0,1E0,7E0],"tree_param":{"num_deleted":"0","num_feature":"5","num_nodes":"19","size_leaf_vector":"1"}},{"base_weights":[2.6276694E3,-1.0765114E5,9.063884E5,-3.0192634E5,4.254071E4,1.5711074E4,6.012359E4,-3.1682953E5,-1.4571581E3,-3.0534078E4,1.9579902E4,-2.1284791E4,-1.12914375E4,-1.3173139E5,6.423931E4,1.6430381E3,-9.147213E3,5.094686E3,-4.27446E3],"categories":[],"categories_nodes":[],"categories_segments":[],"categories_sizes":[],"default_left":[0,0,0,0,0,0,0,0,0,0,0,0,0,0,0,0,0,0,0],"id":16,"left_children":[1,3,5,7,9,-1,-1,11,-1,13,-1,-1,-1,15,17,-1,-1,-1,-1],"loss_changes":[4.582528E12,1.2091646E12,4.5928677E10,6.6784723E10,5.076755E11,0E0,0E0,1.6159343E10,0E0,2.0027857E11,0E0,0E0,0E0,3.7146903E10,3.685651E10,0E0,0E0,0E0,0E0],"parents":[2147483647,0,0,1,1,2,2,3,3,4,4,7,7,9,9,13,13,14,14],"right_children":[2,4,6,8,10,-1,-1,12,-1,14,-1,-1,-1,16,18,-1,-1,-1,-1],"split_conditions":[5.7E0,2.5E1,5.95E0,4.6E0,1.32E2,1.5711074E4,6.012359E4,1.3E1,-1.4571581E3,3.5E0,1.9579902E4,-2.1284791E4,-1.12914375E4,1.33E2,1.15E2,1.6430381E3,-9.147213E3,5.094686E3,-4.27446E3],"split_indices":[1,0,1,1,0,0,0,0,0,1,0,0,0,4,0,0,0,0,0],"split_type":[0,0,0,0,0,0,0,0,0,0,0,0,0,0,0,0,0,0,0],"sum_hessian":[4.4E1,4E1,4E0,1.7E1,2.3E1,1E0,3E0,1.6E1,1E0,1.9E1,4E0,1.1E1,5E0,9E0,1E1,1E0,8E0,9E0,1E0],"tree_param":{"num_deleted":"0","num_feature":"5","num_nodes":"19","size_leaf_vector":"1"}},{"base_weights":[6.956356E3,-1.0217359E5,7.070185E4,-2.3824625E5,5.172378E4,-1.0981103E5,-1.5121259E4,1.1037002E5,-2.021662E4,-1.27795E4,5.9919263E3,-1.995212E4,2.2965516E5,4.7570063E3,-5.959384E3,5.7218076E3,2.443511E4],"categories":[],"categories_nodes":[],"categories_segments":[],"categories_sizes":[],"default_left":[0,0,0,0,0,0,0,0,0,0,0,0,0,0,0,0,0],"id":17,"left_children":[1,3,-1,5,7,9,-1,11,-1,-1,-1,13,15,-1,-1,-1,-1],"loss_changes":[6.0008384E12,9.127956E11,0E0,1.3015974E10,5.1586004E11,1.0780871E11,0E0,2.9994654E11,0E0,0E0,0E0,8.663887E10,1.9966063E11,0E0,0E0,0E0,0E0],"parents":[2147483647,0,0,1,1,3,3,4,4,5,5,7,7,11,11,12,12],"right_children":[2,4,-1,6,8,10,-1,12,-1,-1,-1,14,16,-1,-1,-1,-1],"split_conditions":[5E0,3.2E0,7.070185E4,1.27E2,5.99E0,2.75E0,-1.5121259E4,3E0,-2.021662E4,-1.27795E4,5.9919263E3,3.65E0,1.33E2,4.7570063E3,-5.959384E3,5.7218076E3,2.443511E4],"split_indices":[2,1,0,4,1,1,0,3,0,0,0,1,4,0,0,0,0],"split_type":[0,0,0,0,0,0,0,0,0,0,0,0,0,0,0,0,0],"sum_hessian":[4.5E1,4.2E1,3E0,2.2E1,2E1,3E0,1.9E1,1.8E1,2E0,2E0,1E0,9E0,9E0,4E0,5E0,6E0,3E0],"tree_param":{"num_deleted":"0","num_feature":"5","num_nodes":"17","size_leaf_vector":"1"}},{"base_weights":[1.0549196E5,-4.90497E4,6.400042E4,-1.1093541E5,2.4086352E5,1.345541E5,-1.5081084E5,3.2585656E4,2.333553E4,1.1573372E4,-2.9636287E3,-1.5991168E4,-9.1201414E4,-2.9182524E3,8.287657E3,-3.4505837E3,-1.0846472E4],"categories":[],"categories_nodes":[],"categories_segments":[],"categories_sizes":[],"default_left":[0,0,0,0,0,0,0,0,0,0,0,0,0,0,0,0,0],"id":18,"left_children":[1,3,-1,5,7,9,11,13,-1,-1,-1,-1,15,-1,-1,-1,-1],"loss_changes":[6.4396533E12,7.084968E11,0E0,3.3354023E11,2.031929E11,6.3180956E10,1.6881818E11,4.1008013E10,0E0,0E0,0E0,0E0,4.996109E10,0E0,0E0,0E0,0E0],"parents":[2147483647,0,0,1,1,3,3,4,4,5,5,6,6,7,7,12,12],"right_children":[2,4,-1,6,8,10,12,14,-1,-1,-1,-1,16,-1,-1,-1,-1],"split_conditions":[5.99E0,4.6E0,6.400042E4,6.3E1,1.28E2,3.65E0,2.7E0,5.5E0,2.333553E4,1.1573372E4,-2.9636287E3,-1.5991168E4,3.8E0,-2.9182524E3,8.287657E3,-3.4505837E3,-1.0846472E4],"split_indices":[1,1,0,4,4,1,1,1,0,0,0,0,1,0,0,0,0],"split_type":[0,0,0,0,0,0,0,0,0,0,0,0,0,0,0,0,0],"sum_hessian":[4.2E1,3.7E1,5E0,3.1E1,6E0,4E0,2.7E1,3E0,3E0,3E0,1E0,8E0,1.9E1,2E0,1E0,1.5E1,4E0],"tree_param":{"num_deleted":"0","num_feature":"5","num_nodes":"17","size_leaf_vector":"1"}},{"base_weights":[1.6150985E4,-1.2544407E5,6.6900925E5,-2.9566138E5,4.0523296E3,1.1302442E4,4.786952E4,-1.8740523E4,-7.1558584E3,-6.688126E4,2.0398426E4,-1.5545836E5,2.8383975E4,-1.2285836E4,-6.304525E3,5.0492715E3,-2.6530486E3],"categories":[],"categories_nodes":[],"categories_segments":[],"categories_sizes":[],"default_left":[0,0,0,0,0,0,0,0,0,0,0,0,0,0,0,0,0],"id":19,"left_children":[1,3,5,7,9,-1,-1,-1,-1,11,-1,13,15,-1,-1,-1,-1],"loss_changes":[4.151349E12,8.167715E11,3.4501847E11,9.827647E9,5.4695638E11,0E0,0E0,0E0,0E0,1.6474056E11,0E0,3.325952E9,4.4211327E10,0E0,0E0,0E0,0E0],"parents":[2147483647,0,0,1,1,2,2,3,3,4,4,9,9,11,11,12,12],"right_children":[2,4,6,8,10,-1,-1,-1,-1,12,-1,14,16,-1,-1,-1,-1],"split_conditions":[1.41E2,2.5E1,3.3E0,2.4E1,5E0,1.1302442E4,4.786952E4,-1.8740523E4,-7.1558584E3,3.5E0,2.0398426E4,2.75E0,3.8E0,-1.2285836E4,-6.304525E3,5.0492715E3,-2.6530486E3],"split_indices":[0,0,1,0,1,0,0,0,0,1,0,1,1,0,0,0,0],"split_type":[0,0,0,0,0,0,0,0,0,0,0,0,0,0,0,0,0],"sum_hessian":[4.3E1,3.6E1,7E0,1.5E1,2.1E1,2E0,5E0,1.3E1,2E0,1.8E1,3E0,9E0,9E0,3E0,6E0,5E0,4E0],"tree_param":{"num_deleted":"0","num_feature":"5","num_nodes":"17","size_leaf_vector":"1"}},{"base_weights":[2.2011344E4,-1.3781836E5,7.476787E5,-2.9903244E5,-1.1165352E4,3.8634797E5,6.6165305E4,-1.9294502E4,-8.384377E3,-7.460325E4,1.9480498E4,5.576614E3,2.5586408E4,-7.7349937E3,-1.9669563E3,-4.329172E3,4.958971E3],"categories":[],"categories_nodes":[],"categories_segments":[],"categories_sizes":[],"default_left":[0,0,0,0,0,0,0,0,0,0,0,0,0,0,0,0,0],"id":20,"left_children":[1,3,5,7,9,11,-1,-1,-1,13,-1,-1,-1,-1,15,-1,-1],"loss_changes":[5.786221E12,8.338094E11,7.2865284E11,1.9699073E10,5.3554194E11,3.094446E10,0E0,0E0,0E0,8.25939E10,0E0,0E0,0E0,0E0,6.5352245E10,0E0,0E0],"parents":[2147483647,0,0,1,1,2,2,3,3,4,4,5,5,9,9,14,14],"right_children":[2,4,6,8,10,12,-1,-1,-1,14,-1,-1,-1,-1,16,-1,-1],"split_conditions":[1.41E2,2.5E1,6.2E0,2.3E1,5.232E0,3E0,6.6165305E4,-1.9294502E4,-8.384377E3,3.5E0,1.9480498E4,5.576614E3,2.5586408E4,-7.7349937E3,7.1E1,-4.329172E3,4.958971E3],"split_indices":[0,0,1,0,1,1,0,0,0,1,0,0,0,0,4,0,0],"split_type":[0,0,0,0,0,0,0,0,0,0,0,0,0,0,0,0,0],"sum_hessian":[4.8E1,4E1,8E0,1.7E1,2.3E1,5E0,3E0,1.4E1,3E0,2E1,3E0,1E0,4E0,1.1E1,9E0,5E0,4E0],"tree_param":{"num_deleted":"0","num_feature":"5","num_nodes":"17","size_leaf_vector":"1"}},{"base_weights":[-3.5210477E4,-1.8745886E5,2.534459E5,-1.5744995E4,-7.23406E4,1.3771828E5,5.0364856E5,-1.015611E5,2.6100938E4,7.047383E3,2.889931E5,7.523396E3,3.4011945E4,-1.24323586E5,-3.064586E4,4.4462397E3,-3.5372473E3,8.93331E3,-1.07834984E5,5.2343813E3,1.8713748E4,-7.975317E3,-1.9240499E3,-2.1547961E3,-4.4530875E2,2.751525E3,-9.463387E3],"categories":[],"categories_nodes":[],"categories_segments":[],"categories_sizes":[],"default_left":[0,0,0,0,0,0,0,0,0,0,0,0,0,0,0,0,0,0,0,0,0,0,0,0,0,0,0],"id":21,"left_children":[1,3,5,-1,7,9,11,13,15,17,19,-1,-1,21,23,-1,-1,-1,25,-1,-1,-1,-1,-1,-1,-1,-1],"loss_changes":[2.156989E12,2.5714478E11,4.228795E11,0E0,4.2922E10,2.5493714E11,4.8482877E10,1.3946266E10,2.070035E10,1.4641573E11,5.1452314E8,0E0,0E0,2.0835369E9,2.2278093E8,0E0,0E0,0E0,4.5570445E10,0E0,0E0,0E0,0E0,0E0,0E0,0E0,0E0],"parents":[2147483647,0,0,1,1,2,2,4,4,5,5,6,6,7,7,8,8,9,9,10,10,13,13,14,14,18,18],"right_children":[2,4,6,-1,8,10,12,14,16,18,20,-1,-1,22,24,-1,-1,-1,26,-1,-1,-1,-1,-1,-1,-1,-1],"split_conditions":[6.8E1,2.8E1,4E0,-1.5744995E4,3E0,1.32E2,7.4E1,1.4E2,6E1,6.3E1,1.41E2,7.523396E3,3.4011945E4,5.2E1,4.4E1,4.4462397E3,-3.5372473E3,8.93331E3,7.8E1,5.2343813E3,1.8713748E4,-7.975317E3,-1.9240499E3,-2.1547961E3,-4.4530875E2,2.751525E3,-9.463387E3],"split_indices":[0,0,2,0,2,0,0,4,0,4,0,0,0,0,0,0,0,0,0,0,0,0,0,0,0,0,0],"split_type":[0,0,0,0,0,0,0,0,0,0,0,0,0,0,0,0,0,0,0,0,0,0,0,0,0,0,0],"sum_hessian":[4.7E1,3.1E1,1.6E1,1.8E1,1.3E1,1.2E1,4E0,1E1,3E0,7E0,5E0,1E0,3E0,7E0,3E0,2E0,1E0,3E0,4E0,1E0,4E0,6E0,1E0,2E0,1E0,1E0,3E0],"tree_param":{"num_deleted":"0","num_feature":"5","num_nodes":"27","size_leaf_vector":"1"}},{"base_weights":[3.650384E4,-7.52069E4,5.80544E4,-1.2485758E4,8.137587E4,1.0961034E5,-1.3652373E4,-4.6594897E3,2.673138E5,2.6173389E3,-1.6072781E4,4.018228E3,2.2447541E4],"categories":[],"categories_nodes":[],"categories_segments":[],"categories_sizes":[],"default_left":[0,0,0,0,0,0,0,0,0,0,0,0,0],"id":22,"left_children":[1,3,-1,-1,5,7,-1,9,11,-1,-1,-1,-1],"loss_changes":[4.8572494E12,8.908757E11,0E0,0E0,1.9938196E11,3.4363975E11,0E0,1.641905E11,1.4613696E11,0E0,0E0,0E0,0E0],"parents":[2147483647,0,0,1,1,4,4,5,5,7,7,8,8],"right_children":[2,4,-1,-1,6,8,-1,10,12,-1,-1,-1,-1],"split_conditions":[6.2E0,3.2E0,5.80544E4,-1.2485758E4,4E0,1.28E2,-1.3652373E4,5.7E0,3E0,2.6173389E3,-1.6072781E4,4.018228E3,2.2447541E4],"split_indices":[1,1,0,0,3,4,0,1,3,0,0,0,0],"split_type":[0,0,0,0,0,0,0,0,0,0,0,0,0],"sum_hessian":[4.5E1,4.1E1,4E0,2.2E1,1.9E1,1.8E1,1E0,1.1E1,7E0,1E1,1E0,3E0,4E0],"tree_param":{"num_deleted":"0","num_feature":"5","num_nodes":"13","size_leaf_vector":"1"}},{"base_weights":[5.310257E4,-4.4524945E4,5.526778E4,-9.9805E4,1.8768472E5,-1.5163066E5,-3.8321028E3,2.6632366E5,-1.3242802E4,-1.2795312E4,-1.241897E5,5.2695562E4,-1.16121016E5,4.4404188E4,1.9973766E4,-4.224556E3,-9.933069E3,-5.162897E3,4.660348E3,-8.263776E3,-8.9059875E2,3.6086099E3,3.8776688E2],"categories":[],"categories_nodes":[],"categories_segments":[],"categories_sizes":[],"default_left":[0,0,0,0,0,0,0,0,0,0,0,0,0,0,0,0,0,0,0,0,0,0,0],"id":23,"left_children":[1,3,-1,5,7,9,11,13,-1,-1,15,17,19,21,-1,-1,-1,-1,-1,-1,-1,-1,-1],"loss_changes":[4.1934366E12,5.9637714E11,0E0,1.8345165E11,3.4782508E11,1.4100791E10,9.498308E10,1.0340781E11,0E0,0E0,3.0607933E10,4.13375E10,8.897978E9,1.4028206E9,0E0,0E0,0E0,0E0,0E0,0E0,0E0,0E0,0E0],"parents":[2147483647,0,0,1,1,3,3,4,4,5,5,6,6,7,7,10,10,11,11,12,12,13,13],"right_children":[2,4,-1,6,8,10,12,14,-1,-1,16,18,20,22,-1,-1,-1,-1,-1,-1,-1,-1,-1],"split_conditions":[6.2E0,4.6E0,5.526778E4,3.2E0,4E0,2.4E0,3.8E0,1E0,-1.3242802E4,-1.2795312E4,3E0,1E0,1.28E2,5E0,1.9973766E4,-4.224556E3,-9.933069E3,-5.162897E3,4.660348E3,-8.263776E3,-8.9059875E2,3.6086099E3,3.8776688E2],"split_indices":[1,1,0,1,3,1,1,3,0,0,1,3,4,1,0,0,0,0,0,0,0,0,0],"split_type":[0,0,0,0,0,0,0,0,0,0,0,0,0,0,0,0,0,0,0,0,0,0,0],"sum_hessian":[4.8E1,4.4E1,4E0,3.6E1,8E0,2.3E1,1.3E1,7E0,1E0,5E0,1.8E1,9E0,4E0,2E0,5E0,9E0,9E0,1E0,8E0,3E0,1E0,1E0,1E0],"tree_param":{"num_deleted":"0","num_feature":"5","num_nodes":"23","size_leaf_vector":"1"}},{"base_weights":[-4.599138E4,-1.5582364E5,2.0049373E5,-1.5526394E4,-7.718321E4,4.2676223E4,4.0380438E5,-9.5633016E4,1.5911828E4,-4.3306582E4,9.658882E3,6.025057E3,2.666389E4,-1.1952192E5,-3.5897855E4,3.500351E3,-1.7677021E4,4.080689E4,-8.461342E3,-7.649694E3,-1.1937637E3,3.5806772E3,-5.916315E3,-1.8315469E3,2.4061499E2,6.044814E3,-4.1703936E3],"categories":[],"categories_nodes":[],"categories_segments":[],"categories_sizes":[],"default_left":[0,0,0,0,0,0,0,0,0,0,0,0,0,0,0,0,0,0,0,0,0,0,0,0,0,0,0],"id":24,"left_children":[1,3,5,-1,7,9,11,13,15,17,-1,-1,-1,19,21,-1,23,25,-1,-1,-1,-1,-1,-1,-1,-1,-1],"loss_changes":[1.2224104E12,2.3100306E11,4.3197084E11,0E0,3.4155823E10,9.852143E10,2.9268443E10,1.8541543E10,6.7316076E9,5.5069962E10,0E0,0E0,0E0,6.2008197E9,4.184442E10,0E0,9.583796E8,3.3451327E10,0E0,0E0,0E0,0E0,0E0,0E0,0E0,0E0,0E0],"parents":[2147483647,0,0,1,1,2,2,4,4,5,5,6,6,7,7,8,8,9,9,13,13,14,14,16,16,17,17],"right_children":[2,4,6,-1,8,10,12,14,16,18,-1,-1,-1,20,22,-1,24,26,-1,-1,-1,-1,-1,-1,-1,-1,-1],"split_conditions":[6.8E1,1.3E1,5.7E0,-1.5526394E4,1.47E2,1.32E2,7.4E1,3.6E0,2.8E1,1.33E2,9.658882E3,6.025057E3,2.666389E4,5.2E1,3.8E0,3.500351E3,3.5E1,9E1,-8.461342E3,-7.649694E3,-1.1937637E3,3.5806772E3,-5.916315E3,-1.8315469E3,2.4061499E2,6.044814E3,-4.1703936E3],"split_indices":[0,0,1,0,4,0,0,1,0,4,0,0,0,0,1,0,0,0,0,0,0,0,0,0,0,0,0],"split_type":[0,0,0,0,0,0,0,0,0,0,0,0,0,0,0,0,0,0,0,0,0,0,0,0,0,0,0],"sum_hessian":[4.3E1,3E1,1.3E1,1.2E1,1.8E1,8E0,5E0,1.5E1,3E0,5E0,3E0,1E0,4E0,1E1,5E0,1E0,2E0,3E0,2E0,9E0,1E0,2E0,3E0,1E0,1E0,2E0,1E0],"tree_param":{"num_deleted":"0","num_feature":"5","num_nodes":"27","size_leaf_vector":"1"}},{"base_weights":[3.6137863E4,-9.6426875E4,6.212991E5,-2.2797319E5,7.6954425E2,3.168604E5,5.535795E4,-1.4058929E4,-3.794891E3,-4.1757652E4,2.2384494E5,5.059444E3,2.079017E4,-9.4125914E4,2.5260025E4,3.3953398E3,1.5644035E4,-3.2651375E3,-6.882833E3,4.466624E3,-4.0275881E3],"categories":[],"categories_nodes":[],"categories_segments":[],"categories_sizes":[],"default_left":[0,0,0,0,0,0,0,0,0,0,0,0,0,0,0,0,0,0,0,0,0],"id":25,"left_children":[1,3,5,7,9,11,-1,-1,-1,13,15,-1,-1,17,19,-1,-1,-1,-1,-1,-1],"loss_changes":[3.783354E12,5.1160865E11,5.3329212E11,2.9404037E9,2.3702975E11,1.2139233E10,0E0,0E0,0E0,7.60792E10,9.924936E9,0E0,0E0,3.5672228E9,5.0436248E10,0E0,0E0,0E0,0E0,0E0,0E0],"parents":[2147483647,0,0,1,1,2,2,3,3,4,4,5,5,9,9,10,10,13,13,14,14],"right_children":[2,4,6,8,10,12,-1,-1,-1,14,16,-1,-1,18,20,-1,-1,-1,-1,-1,-1],"split_conditions":[1.41E2,2.5E1,6.2E0,2.4E1,4.5E0,3E0,5.535795E4,-1.4058929E4,-3.794891E3,3.5E0,2.8E1,5.059444E3,2.079017E4,1.36E2,3.8E0,3.3953398E3,1.5644035E4,-3.2651375E3,-6.882833E3,4.466624E3,-4.0275881E3],"split_indices":[0,0,1,0,1,1,0,0,0,1,0,0,0,4,1,0,0,0,0,0,0],"split_type":[0,0,0,0,0,0,0,0,0,0,0,0,0,0,0,0,0,0,0,0,0],"sum_hessian":[4.7E1,3.9E1,8E0,1.6E1,2.3E1,5E0,3E0,1.5E1,1E0,2E1,3E0,1E0,4E0,1.1E1,9E0,1E0,2E0,5E0,6E0,6E0,3E0],"tree_param":{"num_deleted":"0","num_feature":"5","num_nodes":"21","size_leaf_vector":"1"}},{"base_weights":[3.7390266E4,-9.877935E4,5.9304425E5,-2.1024956E5,6.482806E3,3.02157E5,5.286684E4,-2.2638531E5,-5.8306875E3,-5.6619734E4,2.0711438E5,4.9076587E3,1.979224E4,-1.4720414E5,-2.6281675E5,-7.015711E4,4.393226E3,3.2934788E3,1.3886839E4,-1.0725521E4,1.2636937E3,-7.348965E3,-1.8754195E4,-8.128012E3,-2.5524456E3],"categories":[],"categories_nodes":[],"categories_segments":[],"categories_sizes":[],"default_left":[0,0,0,0,0,0,0,0,0,0,0,0,0,0,0,0,0,0,0,0,0,0,0,0,0],"id":26,"left_children":[1,3,5,7,9,11,-1,13,-1,15,17,-1,-1,19,21,23,-1,-1,-1,-1,-1,-1,-1,-1,-1],"loss_changes":[3.463424E12,4.355061E11,4.8792758E11,1.0841162E10,2.64934E11,9.660826E9,0E0,4.5825393E9,0E0,3.3260052E10,5.81573E9,0E0,0E0,4.093177E10,2.455411E10,2.1291401E10,0E0,0E0,0E0,0E0,0E0,0E0,0E0,0E0,0E0],"parents":[2147483647,0,0,1,1,2,2,3,3,4,4,5,5,7,7,9,9,10,10,13,13,14,14,15,15],"right_children":[2,4,6,8,10,12,-1,14,-1,16,18,-1,-1,20,22,24,-1,-1,-1,-1,-1,-1,-1,-1,-1],"split_conditions":[1.41E2,2.5E1,6.2E0,2.3E1,4.5E0,3E0,5.286684E4,1E0,-5.8306875E3,1.32E2,2.8E1,4.9076587E3,1.979224E4,4.6E0,2.5E0,2.75E0,4.393226E3,3.2934788E3,1.3886839E4,-1.0725521E4,1.2636937E3,-7.348965E3,-1.8754195E4,-8.128012E3,-2.5524456E3],"split_indices":[0,0,1,0,1,1,0,3,0,0,0,0,0,1,1,1,0,0,0,0,0,0,0,0,0],"split_type":[0,0,0,0,0,0,0,0,0,0,0,0,0,0,0,0,0,0,0,0,0,0,0,0,0],"sum_hessian":[4.4E1,3.6E1,8E0,1.7E1,1.9E1,5E0,3E0,1.4E1,3E0,1.5E1,4E0,1E0,4E0,6E0,8E0,1.4E1,1E0,1E0,3E0,5E0,1E0,3E0,5E0,3E0,1.1E1],"tree_param":{"num_deleted":"0","num_feature":"5","num_nodes":"25","size_leaf_vector":"1"}},{"base_weights":[1.317843E4,-1.00987945E5,5.680922E5,-1.4498902E4,-3.709819E4,1.0078127E4,4.6474348E4,-7.833542E4,5.8662125E4,-9.382169E4,-4.3378312E4,7.666331E3,-5.96685E4,-1.5472068E3,-5.840542E3,-6.789149E3,1.2670012E3,-7.6144326E3,4.2614287E3],"categories":[],"categories_nodes":[],"categories_segments":[],"categories_sizes":[],"default_left":[0,0,0,0,0,0,0,0,0,0,0,0,0,0,0,0,0,0,0],"id":27,"left_children":[1,3,5,-1,7,-1,-1,9,11,13,15,-1,17,-1,-1,-1,-1,-1,-1],"loss_changes":[2.9715852E12,3.4151894E11,5.3083688E11,0E0,1.1516426E11,0E0,0E0,6.7572777E9,8.12245E10,6.037258E8,3.8390088E10,0E0,4.416376E10,0E0,0E0,0E0,0E0,0E0,0E0],"parents":[2147483647,0,0,1,1,2,2,4,4,7,7,8,8,9,9,10,10,12,12],"right_children":[2,4,6,-1,8,-1,-1,10,12,14,16,-1,18,-1,-1,-1,-1,-1,-1],"split_conditions":[1.41E2,1.3E1,4E0,-1.4498902E4,6.8E1,1.0078127E4,4.6474348E4,4.7E1,1.15E2,2E0,6.9E1,7.666331E3,1.32E2,-1.5472068E3,-5.840542E3,-6.789149E3,1.2670012E3,-7.6144326E3,4.2614287E3],"split_indices":[0,0,2,0,0,0,0,0,0,2,4,0,0,0,0,0,0,0,0],"split_type":[0,0,0,0,0,0,0,0,0,0,0,0,0,0,0,0,0,0,0],"sum_hessian":[4.5E1,3.8E1,7E0,1.1E1,2.7E1,3E0,4E0,1.9E1,8E0,1.2E1,7E0,5E0,3E0,1E0,1.1E1,3E0,4E0,2E0,1E0],"tree_param":{"num_deleted":"0","num_feature":"5","num_nodes":"19","size_leaf_vector":"1"}},{"base_weights":[3.5116453E4,-5.811846E4,4.5319527E4,-9.851902E4,1.417855E4,-1.6599533E5,-3.296028E4,-1.1248005E5,-2.1214E5,-7.3686055E4,3.2248414E4,-7.8677246E3,1.6607494E3,-1.3699617E4,-2.964943E3,-5.6559053E3,-1.5613424E3,-1.4273047E3,5.6539404E3],"categories":[],"categories_nodes":[],"categories_segments":[],"categories_sizes":[],"default_left":[0,0,0,0,0,0,0,0,0,0,0,0,0,0,0,0,0,0,0],"id":28,"left_children":[1,3,-1,5,-1,7,9,11,13,15,17,-1,-1,-1,-1,-1,-1,-1,-1],"loss_changes":[2.9312892E12,4.8718755E11,0E0,1.493569E11,0E0,1.8119066E10,5.2834075E10,2.9767393E10,9.789112E9,9.317466E9,3.0028702E10,0E0,0E0,0E0,0E0,0E0,0E0,0E0,0E0],"parents":[2147483647,0,0,1,1,3,3,5,5,6,6,7,7,8,8,9,9,10,10],"right_children":[2,4,-1,6,-1,8,10,12,14,16,18,-1,-1,-1,-1,-1,-1,-1,-1],"split_conditions":[6.2E0,1.32E2,4.5319527E4,2.5E1,1.417855E4,1.36E2,3.2E0,4.6E0,2.3E1,3E0,7.1E1,-7.8677246E3,1.6607494E3,-1.3699617E4,-2.964943E3,-5.6559053E3,-1.5613424E3,-1.4273047E3,5.6539404E3],"split_indices":[1,0,0,0,0,4,1,1,0,1,4,0,0,0,0,0,0,0,0],"split_type":[0,0,0,0,0,0,0,0,0,0,0,0,0,0,0,0,0,0,0],"sum_hessian":[4.2E1,3.8E1,4E0,3.4E1,4E0,1.6E1,1.8E1,9E0,7E0,1.1E1,7E0,8E0,1E0,6E0,1E0,7E0,4E0,4E0,3E0],"tree_param":{"num_deleted":"0","num_feature":"5","num_nodes":"19","size_leaf_vector":"1"}},{"base_weights":[2.249354E4,-5.8212492E4,7.120667E5,-1.5063434E5,7.851976E4,1.902458E4,5.218209E4,-1.8166266E5,-7.184057E4,2.0608844E4,1.3497982E4,-1.1221313E5,-1.2939396E4,-9.415509E4,3.2002688E3,3.9939867E4,-6.920833E3,-8.1548794E3,1.6109269E3,-1.4539518E3,-6.0409346E3,8.5911816E2,7.234265E3],"categories":[],"categories_nodes":[],"categories_segments":[],"categories_sizes":[],"default_left":[0,0,0,0,0,0,0,0,0,0,0,0,0,0,0,0,0,0,0,0,0,0,0],"id":29,"left_children":[1,3,5,7,9,-1,-1,11,13,15,-1,17,-1,19,-1,21,-1,-1,-1,-1,-1,-1,-1],"loss_changes":[2.6571285E12,5.5522086E11,3.555931E10,5.0515018E10,1.4801915E11,0E0,0E0,1.8296078E10,3.016169E10,4.1401324E10,0E0,3.0016979E10,0E0,1.2113756E9,0E0,2.5129906E10,0E0,0E0,0E0,0E0,0E0,0E0,0E0],"parents":[2147483647,0,0,1,1,2,2,3,3,4,4,7,7,8,8,9,9,11,11,13,13,15,15],"right_children":[2,4,6,8,10,-1,-1,12,14,16,-1,18,-1,20,-1,22,-1,-1,-1,-1,-1,-1,-1],"split_conditions":[5E0,4.2E1,1.46E2,2.4E1,1.25E2,1.902458E4,5.218209E4,1E0,4E0,1.15E2,1.3497982E4,4E0,-1.2939396E4,2E0,3.2002688E3,8E1,-6.920833E3,-8.1548794E3,1.6109269E3,-1.4539518E3,-6.0409346E3,8.5911816E2,7.234265E3],"split_indices":[2,0,4,0,0,0,0,3,2,0,0,2,0,2,0,0,0,0,0,0,0,0,0],"split_type":[0,0,0,0,0,0,0,0,0,0,0,0,0,0,0,0,0,0,0,0,0,0,0],"sum_hessian":[4.6E1,4.2E1,4E0,2.5E1,1.7E1,2E0,2E0,1.7E1,8E0,1.3E1,4E0,7E0,1E1,7E0,1E0,1.2E1,1E0,6E0,1E0,1E0,6E0,1E1,2E0],"tree_param":{"num_deleted":"0","num_feature":"5","num_nodes":"23","size_leaf_vector":"1"}},{"base_weights":[1.552747E2,-1.1100648E5,5.0036375E5,-2.061898E5,-3.319983E4,5.009481E4,2.4969489E5,-3.379091E3,-1.2745601E4,-6.616088E4,2.8631992E4,6.7596523E3,1.74028E4,-7.972016E4,3.3032925E3,5.2895598E4,-4.2363975E3,-2.1198813E3,-6.182804E3,-1.0591663E3,5.07873E3],"categories":[],"categories_nodes":[],"categories_segments":[],"categories_sizes":[],"default_left":[0,0,0,0,0,0,0,0,0,0,0,0,0,0,0,0,0,0,0,0,0],"id":30,"left_children":[1,3,5,7,9,-1,11,-1,-1,13,15,-1,-1,17,-1,19,-1,-1,-1,-1,-1],"loss_changes":[2.4465176E12,2.5976675E11,4.62416E11,2.9922427E9,4.4693197E10,0E0,5.0049843E8,0E0,0E0,2.739936E10,2.2997873E10,0E0,0E0,9.819931E9,0E0,1.7173557E10,0E0,0E0,0E0,0E0,0E0],"parents":[2147483647,0,0,1,1,2,2,3,3,4,4,6,6,9,9,10,10,13,13,15,15],"right_children":[2,4,6,8,10,-1,12,-1,-1,14,16,-1,-1,18,-1,20,-1,-1,-1,-1,-1],"split_conditions":[1.41E2,2.4E1,3E0,5E1,3E0,5.009481E4,3E0,-3.379091E3,-1.2745601E4,1.25E2,9E1,6.7596523E3,1.74028E4,1.36E2,3.3032925E3,2.8E1,-4.2363975E3,-2.1198813E3,-6.182804E3,-1.0591663E3,5.07873E3],"split_indices":[0,0,3,4,2,0,2,0,0,0,0,0,0,4,0,0,0,0,0,0,0],"split_type":[0,0,0,0,0,0,0,0,0,0,0,0,0,0,0,0,0,0,0,0,0],"sum_hessian":[4.2E1,3.5E1,7E0,1.5E1,2E1,2E0,5E0,1E0,1.4E1,1.3E1,7E0,2E0,3E0,1.2E1,1E0,6E0,1E0,5E0,7E0,2E0,4E0],"tree_param":{"num_deleted":"0","num_feature":"5","num_nodes":"21","size_leaf_vector":"1"}},{"base_weights":[-7.936311E3,-5.6252184E4,3.2980816E4,-4.0480832E4,-1.6128877E4,-7.510094E4,1.2469725E5,4.9928426E4,-9.176899E4,1.2607323E4,3.141795E4,5.383491E3,-3.2777192E3,-6.253904E3,-1.8353131E3,-4.748944E3,4.730818E3],"categories":[],"categories_nodes":[],"categories_segments":[],"categories_sizes":[],"default_left":[0,0,0,0,0,0,0,0,0,0,0,0,0,0,0,0,0],"id":31,"left_children":[1,3,-1,5,-1,7,9,11,13,-1,15,-1,-1,-1,-1,-1,-1],"loss_changes":[1.3510658E12,1.4332844E11,0E0,2.6097808E11,0E0,8.168974E10,5.714532E10,2.5706541E10,2.1973402E10,0E0,3.2461087E10,0E0,0E0,0E0,0E0,0E0,0E0],"parents":[2147483647,0,0,1,1,3,3,5,5,6,6,7,7,8,8,10,10],"right_children":[2,4,-1,6,-1,8,10,12,14,-1,16,-1,-1,-1,-1,-1,-1],"split_conditions":[5E0,5.99E0,3.2980816E4,4.6E0,-1.6128877E4,6.3E1,4E0,3E0,3.5E0,1.2607323E4,5.6E1,5.383491E3,-3.2777192E3,-6.253904E3,-1.8353131E3,-4.748944E3,4.730818E3],"split_indices":[2,1,0,1,0,4,2,2,1,0,4,0,0,0,0,0,0],"split_type":[0,0,0,0,0,0,0,0,0,0,0,0,0,0,0,0,0],"sum_hessian":[4.8E1,4.5E1,3E0,4.3E1,2E0,3.6E1,7E0,4E0,3.2E1,3E0,4E0,3E0,1E0,2.6E1,6E0,1E0,3E0],"tree_param":{"num_deleted":"0","num_feature":"5","num_nodes":"17","size_leaf_vector":"1"}},{"base_weights":[7.9139014E3,-7.723019E4,5.742222E5,-1.6987081E5,-1.4850973E4,1.6601152E4,4.677179E4,-1.3883908E5,-1.5483723E4,8.081623E4,-4.2808586E4,-9.339226E3,-3.4733333E3,-4.6064736E3,7.6613574E3,-6.1313746E4,2.496965E4,-4.358647E3,3.259256E3,3.8998462E3,-4.0542449E3],"categories":[],"categories_nodes":[],"categories_segments":[],"categories_sizes":[],"default_left":[0,0,0,0,0,0,0,0,0,0,0,0,0,0,0,0,0,0,0,0,0],"id":32,"left_children":[1,3,5,7,9,-1,-1,11,-1,13,15,-1,-1,-1,-1,17,19,-1,-1,-1,-1],"loss_changes":[2.2141484E12,2.2863123E11,1.5083399E11,7.958561E9,7.03253E10,0E0,0E0,1.0045522E10,0E0,5.4123876E10,2.6615923E10,0E0,0E0,0E0,0E0,2.4909046E10,2.2912864E10,0E0,0E0,0E0,0E0],"parents":[2147483647,0,0,1,1,2,2,3,3,4,4,7,7,9,9,10,10,15,15,16,16],"right_children":[2,4,6,8,10,-1,-1,12,-1,14,16,-1,-1,-1,-1,18,20,-1,-1,-1,-1],"split_conditions":[1.44E2,2.4E1,5E0,4E0,6.3E1,1.6601152E4,4.677179E4,1.3E1,-1.5483723E4,6.8E1,3E0,-9.339226E3,-3.4733333E3,-4.6064736E3,7.6613574E3,1.25E2,6E1,-4.358647E3,3.259256E3,3.8998462E3,-4.0542449E3],"split_indices":[0,0,2,2,4,0,0,0,0,0,2,0,0,0,0,0,0,0,0,0,0],"split_type":[0,0,0,0,0,0,0,0,0,0,0,0,0,0,0,0,0,0,0,0,0],"sum_hessian":[4.4E1,3.9E1,5E0,1.5E1,2.4E1,3E0,2E0,1.3E1,2E0,5E0,1.9E1,1E1,3E0,1E0,4E0,1.5E1,4E0,1.4E1,1E0,3E0,1E0],"tree_param":{"num_deleted":"0","num_feature":"5","num_nodes":"21","size_leaf_vector":"1"}},{"base_weights":[1.6830195E4,-5.0617805E4,6.204961E5,-1.0503064E5,1.1042463E4,1.7148695E4,4.490092E4,-8.192768E3,-8.0738766E4,-6.895522E4,8.345346E4,-6.735737E3,-4.374689E4,-1.193998E5,2.950365E3,1.4380167E5,-8.731504E3,3.114585E3,-3.7315613E3,-2.4319004E3,-1.12881E4,3.2286326E3,1.3381842E4],"categories":[],"categories_nodes":[],"categories_segments":[],"categories_sizes":[],"default_left":[0,0,0,0,0,0,0,0,0,0,0,0,0,0,0,0,0,0,0,0,0,0,0],"id":33,"left_children":[1,3,5,7,9,-1,-1,-1,11,13,15,-1,17,19,-1,21,-1,-1,-1,-1,-1,-1,-1],"loss_changes":[2.0264951E12,1.5213973E11,6.474957E7,7.349125E9,1.3319421E11,0E0,0E0,0E0,1.37467E10,7.141928E10,1.8674808E11,0E0,1.9108577E10,3.5742704E10,0E0,5.929771E10,0E0,0E0,0E0,0E0,0E0,0E0,0E0],"parents":[2147483647,0,0,1,1,2,2,3,3,4,4,8,8,9,9,10,10,12,12,13,13,15,15],"right_children":[2,4,6,8,10,-1,-1,-1,12,14,16,-1,18,20,-1,22,-1,-1,-1,-1,-1,-1,-1],"split_conditions":[6.2E0,3.2E0,7.8E0,3E0,3E0,1.7148695E4,4.490092E4,-8.192768E3,2.9E0,1.4E2,4E0,-6.735737E3,1.27E2,4.2E0,2.950365E3,1.33E2,-8.731504E3,3.114585E3,-3.7315613E3,-2.4319004E3,-1.12881E4,3.2286326E3,1.3381842E4],"split_indices":[1,1,1,3,3,0,0,0,1,4,3,0,4,1,0,4,0,0,0,0,0,0,0],"split_type":[0,0,0,0,0,0,0,0,0,0,0,0,0,0,0,0,0,0,0,0,0,0,0],"sum_hessian":[4.8E1,4.4E1,4E0,2.3E1,2.1E1,2E0,2E0,8E0,1.5E1,1E1,1.1E1,7E0,8E0,7E0,3E0,9E0,2E0,1E0,7E0,4E0,3E0,5E0,4E0],"tree_param":{"num_deleted":"0","num_feature":"5","num_nodes":"23","size_leaf_vector":"1"}},{"base_weights":[2.1255016E4,-3.9516574E4,3.8331004E4,-2.2999502E4,-1.44639795E4,-8.708472E4,4.9042027E4,-6.3764777E4,-1.1109299E5,1.5202884E2,1.3283173E5,-1.7252072E3,-5.989145E3,-4.4623525E3,-9.584582E3,6.2592446E3,-1.6962866E3,2.7748237E3,1.1172508E4],"categories":[],"categories_nodes":[],"categories_segments":[],"categories_sizes":[],"default_left":[0,0,0,0,0,0,0,0,0,0,0,0,0,0,0,0,0,0,0],"id":34,"left_children":[1,3,-1,5,-1,7,9,11,13,15,17,-1,-1,-1,-1,-1,-1,-1,-1],"loss_changes":[1.6766635E12,1.309451E11,0E0,1.8432588E11,0E0,4.673487E9,7.78129E10,1.3539877E10,4.1975726E9,4.144018E10,2.3739662E10,0E0,0E0,0E0,0E0,0E0,0E0,0E0,0E0],"parents":[2147483647,0,0,1,1,3,3,5,5,6,6,7,7,8,8,9,9,10,10],"right_children":[2,4,-1,6,-1,8,10,12,14,16,18,-1,-1,-1,-1,-1,-1,-1,-1],"split_conditions":[6.2E0,5.99E0,3.8331004E4,3.2E0,-1.44639795E4,1.36E2,1.28E2,3E0,3E0,4.1E1,4.5E0,-1.7252072E3,-5.989145E3,-4.4623525E3,-9.584582E3,6.2592446E3,-1.6962866E3,2.7748237E3,1.1172508E4],"split_indices":[1,1,0,1,0,4,4,1,2,4,1,0,0,0,0,0,0,0,0],"split_type":[0,0,0,0,0,0,0,0,0,0,0,0,0,0,0,0,0,0,0],"sum_hessian":[4.3E1,4E1,3E0,3.8E1,2E0,2E1,1.8E1,1.2E1,8E0,1.2E1,6E0,7E0,5E0,6E0,2E0,2E0,1E1,3E0,3E0],"tree_param":{"num_deleted":"0","num_feature":"5","num_nodes":"19","size_leaf_vector":"1"}},{"base_weights":[2.4545385E4,-4.3626508E4,5.6501144E5,-1.1342765E5,4.798753E4,1.4929504E4,4.157164E4,-1.5379925E5,-5.540414E4,5.082987E3,1.5852275E5,-9.913784E4,-1.118936E4,-6.912264E4,2.4534263E3,7.5755086E4,-4.259652E4,4.04175E3,1.1810524E4,-7.825345E3,2.6570886E3,-7.367419E2,-4.444456E3,-1.4968612E3,6.0531104E3,6.4739624E2,-6.7216245E3],"categories":[],"categories_nodes":[],"categories_segments":[],"categories_sizes":[],"default_left":[0,0,0,0,0,0,0,0,0,0,0,0,0,0,0,0,0,0,0,0,0,0,0,0,0,0,0],"id":35,"left_children":[1,3,5,7,9,-1,-1,11,13,15,17,19,-1,21,-1,23,25,-1,-1,-1,-1,-1,-1,-1,-1,-1,-1],"loss_changes":[1.6458117E12,2.6123369E11,2.9719658E10,4.535645E10,8.455857E10,0E0,0E0,4.7413985E9,1.7357644E10,5.0401456E10,4.2062316E9,3.718416E10,0E0,1.9051192E9,0E0,1.7700872E10,3.4568626E10,0E0,0E0,0E0,0E0,0E0,0E0,0E0,0E0,0E0,0E0],"parents":[2147483647,0,0,1,1,2,2,3,3,4,4,7,7,8,8,9,9,10,10,11,11,13,13,15,15,16,16],"right_children":[2,4,6,8,10,-1,-1,12,14,16,18,20,-1,22,-1,24,26,-1,-1,-1,-1,-1,-1,-1,-1,-1,-1],"split_conditions":[6E0,4.7E1,7.8E0,1.3E1,1.32E2,1.4929504E4,4.157164E4,1E0,4.5E0,3E0,1.79E2,4.6E0,-1.118936E4,2E0,2.4534263E3,5E1,7.4E1,4.04175E3,1.1810524E4,-7.825345E3,2.6570886E3,-7.367419E2,-4.444456E3,-1.4968612E3,6.0531104E3,6.4739624E2,-6.7216245E3],"split_indices":[1,0,1,0,0,0,0,3,1,3,0,1,0,2,0,0,0,0,0,0,0,0,0,0,0,0,0],"split_type":[0,0,0,0,0,0,0,0,0,0,0,0,0,0,0,0,0,0,0,0,0,0,0,0,0,0,0],"sum_hessian":[4.3E1,3.9E1,4E0,2.2E1,1.7E1,2E0,2E0,1.2E1,1E1,1.3E1,4E0,6E0,6E0,9E0,1E0,5E0,8E0,2E0,2E0,5E0,1E0,1E0,8E0,1E0,4E0,5E0,3E0],"tree_param":{"num_deleted":"0","num_feature":"5","num_nodes":"27","size_leaf_vector":"1"}},{"base_weights":[3.273842E4,-4.264815E4,5.0473028E5,-8.1030513E3,5.1935166E3,1.5494148E4,3.990877E4,-5.391591E4,4.5506652E4,-8.299409E4,-1.5851739E4,-2.3662174E4,7.0579946E3,-1.6166925E3,-7.803701E3,6.2546625E2,-2.7361638E3,-4.4018174E3,8.049494E2],"categories":[],"categories_nodes":[],"categories_segments":[],"categories_sizes":[],"default_left":[0,0,0,0,0,0,0,0,0,0,0,0,0,0,0,0,0,0,0],"id":36,"left_children":[1,3,5,-1,7,-1,-1,9,11,13,15,17,-1,-1,-1,-1,-1,-1,-1],"loss_changes":[1.5515454E12,1.6868794E11,6.5485144E10,0E0,6.440858E10,0E0,0E0,1.0859608E10,8.260605E10,1.2324114E10,5.1658363E9,1.7569706E10,0E0,0E0,0E0,0E0,0E0,0E0,0E0],"parents":[2147483647,0,0,1,1,2,2,4,4,7,7,8,8,9,9,10,10,11,11],"right_children":[2,4,6,-1,8,-1,-1,10,12,14,16,18,-1,-1,-1,-1,-1,-1,-1],"split_conditions":[6E0,1.3E1,7.8E0,-8.1030513E3,3.2E0,1.5494148E4,3.990877E4,2.9E0,6.8E1,3.5E1,3.1E0,5.6E1,7.0579946E3,-1.6166925E3,-7.803701E3,6.2546625E2,-2.7361638E3,-4.4018174E3,8.049494E2],"split_indices":[1,0,1,0,1,0,0,1,0,0,1,4,0,0,0,0,0,0,0],"split_type":[0,0,0,0,0,0,0,0,0,0,0,0,0,0,0,0,0,0,0],"sum_hessian":[4.2E1,3.7E1,5E0,1.2E1,2.5E1,3E0,2E0,1E1,1.5E1,5E0,5E0,8E0,7E0,3E0,2E0,3E0,2E0,3E0,5E0],"tree_param":{"num_deleted":"0","num_feature":"5","num_nodes":"19","size_leaf_vector":"1"}},{"base_weights":[2.1767396E4,-4.4738426E4,4.8368025E5,-8.436752E4,1.8502455E4,1.4796907E4,3.8312418E4,-6.170355E3,-5.798509E4,-4.451026E4,1.14879234E5,2.9328862E3,-7.0964086E4,-1.1347231E4,-1.1284217E4,2.4059849E3,1.609389E5,-4.865104E3,1.2110024E3,2.616872E3,-6.281611E3,2.7289912E3,1.1055784E4],"categories":[],"categories_nodes":[],"categories_segments":[],"categories_sizes":[],"default_left":[0,0,0,0,0,0,0,0,0,0,0,0,0,0,0,0,0,0,0,0,0,0,0],"id":37,"left_children":[1,3,5,7,9,-1,-1,-1,11,13,15,-1,17,19,-1,-1,21,-1,-1,-1,-1,-1,-1],"loss_changes":[1.4654741E12,1.06820534E11,6.2797775E10,6.7073966E9,1.0835367E11,0E0,0E0,0E0,2.1500092E10,5.023566E10,1.765662E10,0E0,1.2706591E10,5.5870927E10,0E0,0E0,2.3907615E9,0E0,0E0,0E0,0E0,0E0,0E0],"parents":[2147483647,0,0,1,1,2,2,3,3,4,4,8,8,9,9,10,10,12,12,13,13,16,16],"right_children":[2,4,6,8,10,-1,-1,-1,12,14,16,-1,18,20,-1,-1,22,-1,-1,-1,-1,-1,-1],"split_conditions":[6E0,3.5E0,7.8E0,2.9E0,1.28E2,1.4796907E4,3.8312418E4,-6.170355E3,1.27E2,5.7E0,3E0,2.9328862E3,1.4E2,7E1,-1.1284217E4,2.4059849E3,3.65E0,-4.865104E3,1.2110024E3,2.616872E3,-6.281611E3,2.7289912E3,1.1055784E4],"split_indices":[1,1,1,1,4,0,0,0,4,1,3,0,4,4,0,0,1,0,0,0,0,0,0],"split_type":[0,0,0,0,0,0,0,0,0,0,0,0,0,0,0,0,0,0,0,0,0,0,0],"sum_hessian":[4.6E1,4.1E1,5E0,2.5E1,1.6E1,3E0,2E0,1.3E1,1.2E1,1E1,6E0,1E0,1.1E1,9E0,1E0,3E0,3E0,1E1,1E0,6E0,3E0,1E0,2E0],"tree_param":{"num_deleted":"0","num_feature":"5","num_nodes":"23","size_leaf_vector":"1"}},{"base_weights":[2.3795281E4,-2.3027816E4,3.2676379E4,-5.3802383E4,1.1158436E4,-1.13695016E5,3.686392E2,-8.683897E4,-1.4732839E5,1.5493447E4,-6.0351772E3,-1.9582181E3,-6.9981353E3,-9.492685E3,-2.4609094E3,-8.5889655E2,4.3738125E3],"categories":[],"categories_nodes":[],"categories_segments":[],"categories_sizes":[],"default_left":[0,0,0,0,0,0,0,0,0,0,0,0,0,0,0,0,0],"id":38,"left_children":[1,3,-1,5,-1,7,9,11,13,15,-1,-1,-1,-1,-1,-1,-1],"loss_changes":[1.1830685E12,2.9944303E11,0E0,1.2981973E11,0E0,4.368089E9,3.5150758E10,1.7188848E10,1.6099901E9,3.526559E10,0E0,0E0,0E0,0E0,0E0,0E0,0E0],"parents":[2147483647,0,0,1,1,3,3,5,5,6,6,7,7,8,8,9,9],"right_children":[2,4,-1,6,-1,8,10,12,14,16,-1,-1,-1,-1,-1,-1,-1],"split_conditions":[5E0,1.32E2,3.2676379E4,2.8E1,1.1158436E4,1.45E2,1.15E2,1E0,2.3E1,6.8E1,-6.0351772E3,-1.9582181E3,-6.9981353E3,-9.492685E3,-2.4609094E3,-8.5889655E2,4.3738125E3],"split_indices":[2,0,0,0,0,4,0,3,0,0,0,0,0,0,0,0,0],"split_type":[0,0,0,0,0,0,0,0,0,0,0,0,0,0,0,0,0],"sum_hessian":[4.7E1,4.4E1,3E0,3.9E1,5E0,1.8E1,2.1E1,1.2E1,6E0,1.9E1,2E0,5E0,7E0,5E0,1E0,1.3E1,6E0],"tree_param":{"num_deleted":"0","num_feature":"5","num_nodes":"17","size_leaf_vector":"1"}},{"base_weights":[2.5436293E4,-4.0129348E4,4.0582984E5,-7.521727E4,7.6164945E4,5.1977225E5,1.9043E5,-1.3414988E5,-3.3150215E4,8.275413E3,-5.095386E4,9.16338E3,3.547286E4,1.3066795E4,3.2514075E3,-9.559312E4,-1.3848482E4,-9.513169E4,-1.6616328E4,-5.5761733E3,2.2497974E3,-6.396272E3,4.3563373E2,-1.3726406E3,-6.695441E3,-2.0886746E3,2.0408226E3],"categories":[],"categories_nodes":[],"categories_segments":[],"categories_sizes":[],"default_left":[0,0,0,0,0,0,0,0,0,0,0,0,0,0,0,0,0,0,0,0,0,0,0,0,0,0,0],"id":39,"left_children":[1,3,5,7,9,11,13,15,17,-1,19,-1,-1,-1,-1,21,-1,23,25,-1,-1,-1,-1,-1,-1,-1,-1],"loss_changes":[1.1885007E12,1.7303046E11,7.282203E10,7.488478E10,8.553455E10,1.4599062E10,3.1030804E9,2.6385089E10,1.8915154E10,0E0,1.8338238E10,0E0,0E0,0E0,0E0,1.3232234E10,0E0,2.204037E9,1.6844616E10,0E0,0E0,0E0,0E0,0E0,0E0,0E0,0E0],"parents":[2147483647,0,0,1,1,2,2,3,3,4,4,5,5,6,6,7,7,8,8,10,10,15,15,17,17,18,18],"right_children":[2,4,6,8,10,12,14,16,18,-1,20,-1,-1,-1,-1,22,-1,24,26,-1,-1,-1,-1,-1,-1,-1,-1],"split_conditions":[1.44E2,6.8E1,3E0,2.3E1,1.33E2,5E0,1.81E2,4E0,6.9E1,8.275413E3,1.25E2,9.16338E3,3.547286E4,1.3066795E4,3.2514075E3,1.3E1,-1.3848482E4,5E1,4.7E1,-5.5761733E3,2.2497974E3,-6.396272E3,4.3563373E2,-1.3726406E3,-6.695441E3,-2.0886746E3,2.0408226E3],"split_indices":[0,0,3,0,4,2,0,2,4,0,0,0,0,0,0,0,0,0,0,0,0,0,0,0,0,0,0],"split_type":[0,0,0,0,0,0,0,0,0,0,0,0,0,0,0,0,0,0,0,0,0,0,0,0,0,0,0],"sum_hessian":[4.6E1,4E1,6E0,3.1E1,9E0,3E0,3E0,1.2E1,1.9E1,6E0,3E0,1E0,2E0,2E0,1E0,1E1,2E0,3E0,1.6E1,2E0,1E0,9E0,1E0,1E0,2E0,1.2E1,4E0],"tree_param":{"num_deleted":"0","num_feature":"5","num_nodes":"27","size_leaf_vector":"1"}},{"base_weights":[3.5655082E4,-3.0591879E4,3.9018784E5,-1.1975673E5,-2.8226958E3,2.057235E5,3.405395E4,-7.717665E4,-1.5368766E5,-2.9063553E4,5.2565375E4,1.3852331E4,3.1538625E3,-6.949966E3,3.4831182E3,-1.043787E4,-2.7857136E3,-3.7313594E4,3.2874562E4,-3.5394812E4,5.7191396E3,-4.1518677E3,-1.6206267E3,2.41998E3,5.387306E2,3.7823118E3,-5.3531265E3],"categories":[],"categories_nodes":[],"categories_segments":[],"categories_sizes":[],"default_left":[0,0,0,0,0,0,0,0,0,0,0,0,0,0,0,0,0,0,0,0,0,0,0,0,0,0,0],"id":40,"left_children":[1,3,5,7,9,11,-1,13,15,17,19,-1,-1,-1,-1,-1,-1,21,23,25,-1,-1,-1,-1,-1,-1,-1],"loss_changes":[1.04535215E12,9.37513E10,1.1227778E11,1.141932E9,4.513065E10,7.123108E9,0E0,3.8088794E10,6.225838E8,1.1957502E10,4.0979964E10,0E0,0E0,0E0,0E0,0E0,0E0,4.3725824E9,1.7253043E8,2.6816508E10,0E0,0E0,0E0,0E0,0E0,0E0,0E0],"parents":[2147483647,0,0,1,1,2,2,3,3,4,4,5,5,7,7,8,8,9,9,10,10,17,17,18,18,19,19],"right_children":[2,4,6,8,10,12,-1,14,16,18,20,-1,-1,-1,-1,-1,-1,22,24,26,-1,-1,-1,-1,-1,-1,-1],"split_conditions":[1.44E2,1E1,7.74E0,1E0,6.8E1,2.04E2,3.405395E4,4.6E0,4E0,1.47E2,3.2E0,1.3852331E4,3.1538625E3,-6.949966E3,3.4831182E3,-1.043787E4,-2.7857136E3,5.6E1,2.8E1,7.8E1,5.7191396E3,-4.1518677E3,-1.6206267E3,2.41998E3,5.387306E2,3.7823118E3,-5.3531265E3],"split_indices":[0,0,1,3,0,0,0,1,3,4,1,0,0,0,0,0,0,4,0,0,0,0,0,0,0,0,0],"split_type":[0,0,0,0,0,0,0,0,0,0,0,0,0,0,0,0,0,0,0,0,0,0,0,0,0,0,0],"sum_hessian":[4.3E1,3.7E1,6E0,8E0,2.9E1,4E0,2E0,5E0,3E0,2E1,9E0,3E0,1E0,4E0,1E0,2E0,1E0,1.8E1,2E0,3E0,6E0,3E0,1.5E1,1E0,1E0,1E0,2E0],"tree_param":{"num_deleted":"0","num_feature":"5","num_nodes":"27","size_leaf_vector":"1"}},{"base_weights":[2.233722E4,-2.8014947E4,4.3075756E5,-8.8041625E4,5.3577016E4,1.0383965E4,3.2691791E4,-1.1839223E5,-3.371157E4,8.9967336E4,-3.1568047E3,-6.5138227E4,-1.4665731E5,-5.409758E4,3.1888312E4,4.194751E4,1.229926E5,-3.745695E4,3.9897449E3,-5.685884E3,3.3786243E3,-4.957607E3,-1.2362326E4,-3.4955438E2,-3.6096753E3,2.34738E3,5.225681E2,-1.2069056E3,3.502983E3,8.1744375E3,1.702575E3,4.831256E2,-5.1390015E3],"categories":[],"categories_nodes":[],"categories_segments":[],"categories_sizes":[],"default_left":[0,0,0,0,0,0,0,0,0,0,0,0,0,0,0,0,0,0,0,0,0,0,0,0,0,0,0,0,0,0,0,0,0],"id":41,"left_children":[1,3,5,7,9,-1,-1,11,13,15,17,19,21,23,25,27,29,31,-1,-1,-1,-1,-1,-1,-1,-1,-1,-1,-1,-1,-1,-1,-1],"loss_changes":[9.374858E11,2.0552249E11,5.2722926E10,3.5583607E10,3.7446124E10,0E0,0E0,1.3025427E10,1.509828E10,1.2285313E10,2.160347E10,3.0522933E10,1.7195729E10,1.9911393E9,1.6233472E8,7.2945736E9,3.6548854E9,1.3848984E10,0E0,0E0,0E0,0E0,0E0,0E0,0E0,0E0,0E0,0E0,0E0,0E0,0E0,0E0,0E0],"parents":[2147483647,0,0,1,1,2,2,3,3,4,4,7,7,8,8,9,9,10,10,11,11,12,12,13,13,14,14,15,15,16,16,17,17],"right_children":[2,4,6,8,10,-1,-1,12,14,16,18,20,22,24,26,28,30,32,-1,-1,-1,-1,-1,-1,-1,-1,-1,-1,-1,-1,-1,-1,-1],"split_conditions":[5E0,4.2E1,1.46E2,2.4E1,1.36E2,1.0383965E4,3.2691791E4,1E0,1.47E2,7E1,3E0,4E0,3E0,2E0,2.8E1,5.6E1,7E1,5.4E1,3.9897449E3,-5.685884E3,3.3786243E3,-4.957607E3,-1.2362326E4,-3.4955438E2,-3.6096753E3,2.34738E3,5.225681E2,-1.2069056E3,3.502983E3,8.1744375E3,1.702575E3,4.831256E2,-5.1390015E3],"split_indices":[2,0,4,0,4,0,0,3,4,0,2,2,2,2,0,4,4,0,0,0,0,0,0,0,0,0,0,0,0,0,0,0,0],"split_type":[0,0,0,0,0,0,0,0,0,0,0,0,0,0,0,0,0,0,0,0,0,0,0,0,0,0,0,0,0,0,0,0,0],"sum_hessian":[4.4E1,4E1,4E0,2.3E1,1.7E1,2E0,2E0,1.4E1,9E0,1E1,7E0,6E0,8E0,7E0,2E0,5E0,5E0,5E0,2E0,5E0,1E0,5E0,3E0,1E0,6E0,1E0,1E0,1E0,4E0,4E0,1E0,3E0,2E0],"tree_param":{"num_deleted":"0","num_feature":"5","num_nodes":"33","size_leaf_vector":"1"}},{"base_weights":[-4.0843174E3,-5.4862273E4,2.721509E5,-1.11924055E5,-3.3396846E3,1.6514962E3,3.083344E5,-8.641552E4,-1.263969E4,1.0700841E5,-2.7675945E4,1.9193125E5,2.6710508E4,-5.9675625E3,3.2772656E3,-1.5006375E2,8.660715E3,-7.939128E4,-1.2040125E4,1.2925064E4,2.9395574E3,5.0689124E2,-6.6892295E3,-1.1748187E3,2.805675E3],"categories":[],"categories_nodes":[],"categories_segments":[],"categories_sizes":[],"default_left":[0,0,0,0,0,0,0,0,0,0,0,0,0,0,0,0,0,0,0,0,0,0,0,0,0],"id":42,"left_children":[1,3,5,7,9,-1,11,13,-1,15,17,19,-1,-1,-1,-1,-1,21,23,-1,-1,-1,-1,-1,-1],"loss_changes":[6.321038E11,1.1134508E11,5.3473116E10,2.7131249E10,5.9356217E10,0E0,1.0129113E10,3.4867134E10,0E0,1.6715964E10,1.359913E10,6.231769E9,0E0,0E0,0E0,0E0,0E0,1.2219009E10,7.566201E9,0E0,0E0,0E0,0E0,0E0,0E0],"parents":[2147483647,0,0,1,1,2,2,3,3,4,4,6,6,7,7,9,9,10,10,11,11,17,17,18,18],"right_children":[2,4,6,8,10,-1,12,14,-1,16,18,20,-1,-1,-1,-1,-1,22,24,-1,-1,-1,-1,-1,-1],"split_conditions":[1.41E2,2.8E1,3E0,5.5E0,2E0,1.6514962E3,2.95E2,4.6E0,-1.263969E4,4.4E1,2.75E0,2.04E2,2.6710508E4,-5.9675625E3,3.2772656E3,-1.5006375E2,8.660715E3,3.5E1,5.232E0,1.2925064E4,2.9395574E3,5.0689124E2,-6.6892295E3,-1.1748187E3,2.805675E3],"split_indices":[0,0,1,1,3,0,0,1,0,0,1,0,0,0,0,0,0,0,1,0,0,0,0,0,0],"split_type":[0,0,0,0,0,0,0,0,0,0,0,0,0,0,0,0,0,0,0,0,0,0,0,0,0],"sum_hessian":[4.3E1,3.7E1,6E0,1.7E1,2E1,1E0,5E0,1.5E1,2E0,3E0,1.7E1,4E0,1E0,1.4E1,1E0,1E0,2E0,3E0,1.4E1,3E0,1E0,1E0,2E0,1.3E1,1E0],"tree_param":{"num_deleted":"0","num_feature":"5","num_nodes":"25","size_leaf_vector":"1"}},{"base_weights":[2.5981236E4,-2.4919707E4,3.7795762E5,-4.2811684E4,1.1604327E5,1.1072629E4,3.059141E4,-9.142231E4,-1.9621344E4,2.5347324E3,1.5115992E5,-7.1681625E4,-9.257096E3,-2.8034852E4,3.4219E3,1.075302E4,2.8513723E3,-5.366777E3,3.178948E3,1.6193947E3,-2.3880596E3],"categories":[],"categories_nodes":[],"categories_segments":[],"categories_sizes":[],"default_left":[0,0,0,0,0,0,0,0,0,0,0,0,0,0,0,0,0,0,0,0,0],"id":43,"left_children":[1,3,5,7,9,-1,-1,11,13,-1,15,17,-1,19,-1,-1,-1,-1,-1,-1,-1],"loss_changes":[8.5146724E11,1.1089648E11,5.8975846E10,4.104345E10,6.571819E9,0E0,0E0,3.8320292E9,1.9011736E10,0E0,2.063442E8,2.9099848E10,0E0,1.725995E10,0E0,0E0,0E0,0E0,0E0,0E0,0E0],"parents":[2147483647,0,0,1,1,2,2,3,3,4,4,7,7,8,8,10,10,11,11,13,13],"right_children":[2,4,6,8,10,-1,-1,12,14,-1,16,18,-1,20,-1,-1,-1,-1,-1,-1,-1],"split_conditions":[6E0,1.32E2,7.8E0,1.3E1,1.79E2,1.1072629E4,3.059141E4,5.5E0,5.232E0,2.5347324E3,1.81E2,4.6E0,-9.257096E3,2E0,3.4219E3,1.075302E4,2.8513723E3,-5.366777E3,3.178948E3,1.6193947E3,-2.3880596E3],"split_indices":[1,0,1,0,0,0,0,1,1,0,0,1,0,3,0,0,0,0,0,0,0],"split_type":[0,0,0,0,0,0,0,0,0,0,0,0,0,0,0,0,0,0,0,0,0],"sum_hessian":[4.6E1,4.1E1,5E0,3.7E1,4E0,3E0,2E0,1.1E1,2.6E1,2E0,2E0,1E1,1E0,2.4E1,2E0,1E0,1E0,9E0,1E0,4E0,2E1],"tree_param":{"num_deleted":"0","num_feature":"5","num_nodes":"21","size_leaf_vector":"1"}},{"base_weights":[-1.9103102E4,-4.852227E4,1.6350573E4,-3.469859E4,-1.2170412E4,-4.917132E4,4.0656687E3,-5.81418E4,3.5948447E3,-5.9434897E3,-2.6615728E3],"categories":[],"categories_nodes":[],"categories_segments":[],"categories_sizes":[],"default_left":[0,0,0,0,0,0,0,0,0,0,0],"id":44,"left_children":[1,3,-1,5,-1,7,-1,9,-1,-1,-1],"loss_changes":[3.7354088E11,7.615814E10,0E0,5.8198176E10,0E0,3.5775603E10,0E0,1.3087343E10,0E0,0E0,0E0],"parents":[2147483647,0,0,1,1,3,3,5,5,7,7],"right_children":[2,4,-1,6,-1,8,-1,10,-1,-1,-1],"split_conditions":[5E0,5.95E0,1.6350573E4,1.32E2,-1.2170412E4,5.232E0,4.0656687E3,1E1,3.5948447E3,-5.9434897E3,-2.6615728E3],"split_indices":[2,1,0,0,0,1,0,0,0,0,0],"split_type":[0,0,0,0,0,0,0,0,0,0,0],"sum_hessian":[4.1E1,3.8E1,3E0,3.6E1,2E0,3.2E1,4E0,3E1,2E0,6E0,2.4E1],"tree_param":{"num_deleted":"0","num_feature":"5","num_nodes":"11","size_leaf_vector":"1"}},{"base_weights":[1.2971089E4,-2.3503559E4,1.8130443E4,-5.0547668E4,6.268353E4,-6.9366113E3,-3.3589094E4,1.1489013E5,-1.25011E4,-6.1636547E4,1.026075E4,7.7105137E3,1.40394E3,-4.574175E3,3.324065E3,-4.3415034E3,2.9757336E3,-8.4702655E2,3.387077E3],"categories":[],"categories_nodes":[],"categories_segments":[],"categories_sizes":[],"default_left":[0,0,0,0,0,0,0,0,0,0,0,0,0,0,0,0,0,0,0],"id":45,"left_children":[1,3,-1,5,7,-1,9,11,13,15,17,-1,-1,-1,-1,-1,-1,-1,-1],"loss_changes":[4.7123956E11,9.640262E10,0E0,3.0321156E10,4.06876E10,0E0,3.2609219E10,4.468818E9,2.586235E10,2.2670467E10,1.3183218E10,0E0,0E0,0E0,0E0,0E0,0E0,0E0,0E0],"parents":[2147483647,0,0,1,1,3,3,4,4,6,6,7,7,8,8,9,9,10,10],"right_children":[2,4,-1,6,8,-1,10,12,14,16,18,-1,-1,-1,-1,-1,-1,-1,-1],"split_conditions":[1.79E2,6.8E1,1.8130443E4,6.9E1,1.33E2,-6.9366113E3,2.5E1,1.44E2,3.2E0,4.6E0,3E0,7.7105137E3,1.40394E3,-4.574175E3,3.324065E3,-4.3415034E3,2.9757336E3,-8.4702655E2,3.387077E3],"split_indices":[0,0,0,4,4,0,0,0,1,1,2,0,0,0,0,0,0,0,0],"split_type":[0,0,0,0,0,0,0,0,0,0,0,0,0,0,0,0,0,0,0],"sum_hessian":[4.3E1,3.9E1,4E0,3E1,9E0,5E0,2.5E1,5E0,4E0,1.5E1,1E1,4E0,1E0,2E0,2E0,1.4E1,1E0,7E0,3E0],"tree_param":{"num_deleted":"0","num_feature":"5","num_nodes":"19","size_leaf_vector":"1"}},{"base_weights":[3.4050667E3,-5.282552E4,1.5020775E5,-3.7995273E4,-1.1604379E4,1.7061562E4,2.074881E5,-5.3687414E4,1.8961843E3,-4.100038E3,3.3296362E3,1.9695262E3,2.2521775E5,-6.4120965E4,1.19021875E4,-4.9708457E4,2.1010902E4,2.4739197E5,2.0999475E3,-5.7539473E3,-3.0109636E3,3.7386167E3,-1.5402362E3,-7.758675E2,-3.6978936E3,-2.8833516E3,2.2645623E3,4.0599824E3,1.5964109E4],"categories":[],"categories_nodes":[],"categories_segments":[],"categories_sizes":[],"default_left":[0,0,0,0,0,0,0,0,0,0,0,0,0,0,0,0,0,0,0,0,0,0,0,0,0,0,0,0,0],"id":46,"left_children":[1,3,5,7,-1,9,11,13,15,-1,-1,-1,17,19,21,23,25,27,-1,-1,-1,-1,-1,-1,-1,-1,-1,-1,-1],"loss_changes":[3.8765563E11,6.35363E10,9.560654E10,2.0133237E10,0E0,2.0201886E10,2.0477477E10,1.6502825E10,1.0908502E10,0E0,0E0,0E0,2.5085116E10,4.0461517E9,9.175434E9,5.1853414E8,1.1058648E10,5.4926377E9,0E0,0E0,0E0,0E0,0E0,0E0,0E0,0E0,0E0,0E0,0E0],"parents":[2147483647,0,0,1,1,2,2,3,3,5,5,6,6,7,7,8,8,12,12,13,13,14,14,15,15,16,16,17,17],"right_children":[2,4,6,8,-1,10,12,14,16,-1,-1,-1,18,20,22,24,26,28,-1,-1,-1,-1,-1,-1,-1,-1,-1,-1,-1],"split_conditions":[8E1,5.5E0,3.54E0,3.6E0,-1.1604379E4,1.25E2,4.1E1,5.2E1,5.6E1,-4.100038E3,3.3296362E3,1.9695262E3,2.04E2,1E1,2.75E0,5E1,6E0,3.65E0,2.0999475E3,-5.7539473E3,-3.0109636E3,3.7386167E3,-1.5402362E3,-7.758675E2,-3.6978936E3,-2.8833516E3,2.2645623E3,4.0599824E3,1.5964109E4],"split_indices":[0,1,1,1,0,0,4,0,4,0,0,0,0,0,1,0,0,1,0,0,0,0,0,0,0,0,0,0,0],"split_type":[0,0,0,0,0,0,0,0,0,0,0,0,0,0,0,0,0,0,0,0,0,0,0,0,0,0,0,0,0],"sum_hessian":[4.5E1,3.3E1,1.2E1,3.1E1,2E0,4E0,8E0,2.2E1,9E0,1E0,3E0,1E0,7E0,1.9E1,3E0,2E0,7E0,6E0,1E0,4E0,1.5E1,1E0,2E0,1E0,1E0,1E0,6E0,1E0,5E0],"tree_param":{"num_deleted":"0","num_feature":"5","num_nodes":"29","size_leaf_vector":"1"}},{"base_weights":[2.3241395E4,-2.2751629E4,3.336535E5,-8.596964E4,1.3212142E4,1.5143825E5,2.792336E4,-3.846269E4,-1.0587684E5,8.0668125E4,-9.902336E3,1.0757095E4,2.0369475E3,-6.4945395E4,2.8185244E3,-6.2719785E4,-1.1140203E4,-7.5259125E2,5.8976323E3,-2.0195088E4,3.5151523E3,-5.197115E3,-1.2974244E3,-4.842182E3,-3.5080063E2,-3.519535E2,-3.5486199E3],"categories":[],"categories_nodes":[],"categories_segments":[],"categories_sizes":[],"default_left":[0,0,0,0,0,0,0,0,0,0,0,0,0,0,0,0,0,0,0,0,0,0,0,0,0,0,0],"id":47,"left_children":[1,3,5,7,9,11,-1,13,15,17,19,-1,-1,21,-1,23,-1,-1,-1,25,-1,-1,-1,-1,-1,-1,-1],"loss_changes":[6.643236E11,9.435172E10,7.354791E10,1.0113647E10,4.2897465E10,7.0001623E9,0E0,1.6626628E10,2.2791217E10,1.2733354E10,1.5986724E10,0E0,0E0,2.8215747E9,0E0,7.7102633E9,0E0,0E0,0E0,1.0257005E10,0E0,0E0,0E0,0E0,0E0,0E0,0E0],"parents":[2147483647,0,0,1,1,2,2,3,3,4,4,5,5,7,7,8,8,9,9,10,10,13,13,15,15,19,19],"right_children":[2,4,6,8,10,12,-1,14,16,18,20,-1,-1,22,-1,24,-1,-1,-1,26,-1,-1,-1,-1,-1,-1,-1],"split_conditions":[1.44E2,2.4E1,5E0,1E0,6.3E1,2.04E2,2.792336E4,4E0,4E0,5E1,4E0,1.0757095E4,2.0369475E3,6E0,2.8185244E3,1.3E1,-1.1140203E4,-7.5259125E2,5.8976323E3,7.8E1,3.5151523E3,-5.197115E3,-1.2974244E3,-4.842182E3,-3.5080063E2,-3.519535E2,-3.5486199E3],"split_indices":[0,0,2,3,4,0,0,2,2,0,2,0,0,0,0,0,0,0,0,0,0,0,0,0,0,0,0],"split_type":[0,0,0,0,0,0,0,0,0,0,0,0,0,0,0,0,0,0,0,0,0,0,0,0,0,0,0],"sum_hessian":[4.5E1,4E1,5E0,1.4E1,2.6E1,3E0,2E0,5E0,9E0,6E0,2E1,2E0,1E0,4E0,1E0,7E0,2E0,1E0,5E0,1.8E1,2E0,2E0,2E0,5E0,2E0,1.4E1,4E0],"tree_param":{"num_deleted":"0","num_feature":"5","num_nodes":"27","size_leaf_vector":"1"}},{"base_weights":[1.7894979E4,-2.813303E4,3.5492325E5,-4.669076E4,9.99746E4,8.6858955E3,2.680643E4,-3.245372E4,-1.0694595E4,9.3921747E2,1.1714144E5,-4.142856E4,3.907256E3,8.0540894E3,1.9758374E3,-1.8660283E3,-5.892238E3],"categories":[],"categories_nodes":[],"categories_segments":[],"categories_sizes":[],"default_left":[0,0,0,0,0,0,0,0,0,0,0,0,0,0,0,0,0],"id":48,"left_children":[1,3,5,7,9,-1,-1,11,-1,-1,13,15,-1,-1,-1,-1,-1],"loss_changes":[6.460074E11,9.2631196E10,3.18387E10,5.602164E10,5.4039306E9,0E0,0E0,2.9845082E10,0E0,0E0,1.3373604E9,1.395087E10,0E0,0E0,0E0,0E0,0E0],"parents":[2147483647,0,0,1,1,2,2,3,3,4,4,7,7,10,10,11,11],"right_children":[2,4,6,8,10,-1,-1,12,-1,-1,14,16,-1,-1,-1,-1,-1],"split_conditions":[6.2E0,1.32E2,7.8E0,5.99E0,3E0,8.6858955E3,2.680643E4,5.232E0,-1.0694595E4,9.3921747E2,1.81E2,6E1,3.907256E3,8.0540894E3,1.9758374E3,-1.8660283E3,-5.892238E3],"split_indices":[1,0,1,1,1,0,0,1,0,0,0,0,0,0,0,0,0],"split_type":[0,0,0,0,0,0,0,0,0,0,0,0,0,0,0,0,0],"sum_hessian":[4E1,3.6E1,4E0,3.2E1,4E0,2E0,2E0,3E1,2E0,1E0,3E0,2.8E1,2E0,2E0,1E0,2.5E1,3E0],"tree_param":{"num_deleted":"0","num_feature":"5","num_nodes":"17","size_leaf_vector":"1"}},{"base_weights":[1.5524349E4,-1.2728522E4,2.6104475E5,-5.6524707E4,2.6123494E4,1.4087156E5,2.2252125E4,-1.0501675E5,-4.2608438E4,1.3567699E4,6.5694897E3,9.992015E3,1.916565E3,-1.8200287E3,-7.1879873E3,-5.753374E4,3.0717588E3,2.007697E4,-3.6938098E3,-4.26316E3,-1.3896041E3,-1.680392E2,2.467765E3],"categories":[],"categories_nodes":[],"categories_segments":[],"categories_sizes":[],"default_left":[0,0,0,0,0,0,0,0,0,0,0,0,0,0,0,0,0,0,0,0,0,0,0],"id":49,"left_children":[1,3,5,7,9,11,-1,13,15,17,-1,-1,-1,-1,-1,19,-1,21,-1,-1,-1,-1,-1],"loss_changes":[3.3628222E11,7.634571E10,1.3744669E10,9.696797E9,2.3636492E10,5.861794E9,0E0,7.8217626E8,2.8146563E10,1.1995095E10,0E0,0E0,0E0,0E0,0E0,5.7895444E9,0E0,1.0229418E10,0E0,0E0,0E0,0E0,0E0],"parents":[2147483647,0,0,1,1,2,2,3,3,4,4,5,5,7,7,8,8,9,9,15,15,17,17],"right_children":[2,4,6,8,10,12,-1,14,16,18,-1,-1,-1,-1,-1,20,-1,22,-1,-1,-1,-1,-1],"split_conditions":[1.79E2,2.8E1,2.95E2,7.1E1,5E0,2.04E2,2.2252125E4,1E0,4E0,1.66E2,6.5694897E3,9.992015E3,1.916565E3,-1.8200287E3,-7.1879873E3,1.3E1,3.0717588E3,6.8E1,-3.6938098E3,-4.26316E3,-1.3896041E3,-1.680392E2,2.467765E3],"split_indices":[0,0,0,4,2,0,0,3,2,4,0,0,0,0,0,0,0,0,0,0,0,0,0],"split_type":[0,0,0,0,0,0,0,0,0,0,0,0,0,0,0,0,0,0,0,0,0,0,0],"sum_hessian":[4.7E1,4.3E1,4E0,2E1,2.3E1,3E0,1E0,3E0,1.7E1,2.1E1,2E0,2E0,1E0,1E0,2E0,1.5E1,2E0,2E1,1E0,1E1,5E0,1E1,1E1],"tree_param":{"num_deleted":"0","num_feature":"5","num_nodes":"23","size_leaf_vector":"1"}},{"base_weights":[1.9832062E4,-1.26439E4,3.146445E5,-7.354292E4,2.9132002E4,6.30671E3,2.5157738E4,-3.685153E4,-9.687743E4,1.0964412E4,1.3539644E5,-5.1977137E4,2.5245994E3,-6.182527E4,-1.0184485E4,1.6397646E4,-3.5829956E3,9.592335E3,1.85907E3,-4.567109E3,-5.283703E2,-4.6808594E3,-2.0654312E2,6.028781E1,2.5164448E3],"categories":[],"categories_nodes":[],"categories_segments":[],"categories_sizes":[],"default_left":[0,0,0,0,0,0,0,0,0,0,0,0,0,0,0,0,0,0,0,0,0,0,0,0,0],"id":50,"left_children":[1,3,5,7,9,-1,-1,11,13,15,17,19,-1,21,-1,23,-1,-1,-1,-1,-1,-1,-1,-1,-1],"loss_changes":[4.826942E11,1.1917158E11,6.5566278E10,1.2697264E10,5.2571374E10,0E0,0E0,1.2931553E10,1.7600119E10,1.0579872E10,5.2687094E9,7.667329E9,0E0,8.23792E9,0E0,9.394205E9,0E0,0E0,0E0,0E0,0E0,0E0,0E0,0E0,0E0],"parents":[2147483647,0,0,1,1,2,2,3,3,4,4,7,7,8,8,9,9,10,10,11,11,13,13,15,15],"right_children":[2,4,6,8,10,-1,-1,12,14,16,18,20,-1,22,-1,24,-1,-1,-1,-1,-1,-1,-1,-1,-1],"split_conditions":[5E0,2.4E1,1.46E2,1E0,1.79E2,6.30671E3,2.5157738E4,4E0,4E0,1.66E2,2.04E2,1E1,2.5245994E3,1.3E1,-1.0184485E4,6.8E1,-3.5829956E3,9.592335E3,1.85907E3,-4.567109E3,-5.283703E2,-4.6808594E3,-2.0654312E2,6.028781E1,2.5164448E3],"split_indices":[2,0,4,3,0,0,0,2,2,4,0,0,0,0,0,0,0,0,0,0,0,0,0,0,0],"split_type":[0,0,0,0,0,0,0,0,0,0,0,0,0,0,0,0,0,0,0,0,0,0,0,0,0],"sum_hessian":[4.9E1,4.5E1,4E0,1.8E1,2.7E1,2E0,2E0,8E0,1E1,2.4E1,3E0,7E0,1E0,8E0,2E0,2.3E1,1E0,2E0,1E0,4E0,3E0,6E0,2E0,1.5E1,8E0],"tree_param":{"num_deleted":"0","num_feature":"5","num_nodes":"25","size_leaf_vector":"1"}},{"base_weights":[5.36297E3,-1.6776637E4,1.618185E4,-9.421995E3,-9.532219E4,-2.4338242E4,6.260793E4,-9.7771045E3,3.2269949E3,3.2311969E4,-3.3900758E4,-2.3523541E4,9.523901E4,-1.7495775E3,3.0262925E3,-3.3230461E3,-1.2384976E3,-3.5838862E3,1.4667675E3,8.1337646E3,3.6037026E3],"categories":[],"categories_nodes":[],"categories_segments":[],"categories_sizes":[],"default_left":[0,0,0,0,0,0,0,0,0,0,0,0,0,0,0,0,0,0,0,0,0],"id":51,"left_children":[1,3,-1,5,7,9,11,-1,-1,13,15,17,19,-1,-1,-1,-1,-1,-1,-1,-1],"loss_changes":[3.0299E11,2.6830242E10,0E0,4.9872495E10,4.9099813E10,2.1680706E10,2.4724863E10,0E0,0E0,8.1562537E9,8.256852E9,6.6708444E9,3.687506E8,0E0,0E0,0E0,0E0,0E0,0E0,0E0,0E0],"parents":[2147483647,0,0,1,1,3,3,4,4,5,5,6,6,9,9,10,10,11,11,12,12],"right_children":[2,4,-1,6,8,10,12,-1,-1,14,16,18,20,-1,-1,-1,-1,-1,-1,-1,-1],"split_conditions":[6.2E0,5.99E0,1.618185E4,4.6E0,5E0,6.3E1,5.6E1,-9.7771045E3,3.2269949E3,1E0,2.9E0,5.232E0,4.8E0,-1.7495775E3,3.0262925E3,-3.3230461E3,-1.2384976E3,-3.5838862E3,1.4667675E3,8.1337646E3,3.6037026E3],"split_indices":[1,1,0,1,2,4,4,0,0,3,1,1,1,0,0,0,0,0,0,0,0],"split_type":[0,0,0,0,0,0,0,0,0,0,0,0,0,0,0,0,0,0,0,0,0],"sum_hessian":[5E1,4.7E1,3E0,4.4E1,3E0,3.7E1,7E0,2E0,1E0,5E0,3.2E1,2E0,5E0,1E0,4E0,1.1E1,2.1E1,1E0,1E0,1E0,4E0],"tree_param":{"num_deleted":"0","num_feature":"5","num_nodes":"21","size_leaf_vector":"1"}},{"base_weights":[2.7949714E3,-4.890201E4,9.386053E4,-6.811194E4,-1.441113E4,2.7520525E4,1.6505297E5,-2.7122578E4,-8.0813664E4,-2.4215744E4,2.8031887E3,4.29106E3,-1.37305205E4,1.422765E3,1.8185689E5,-2.5068582E3,1.3850812E3,-5.8201305E4,-1.0987565E5,-4.3281812E4,1.9970328E4,-4.974287E3,2.4949688E3,1.216492E4,1.6951875E3,-4.4833335E3,-1.6041562E3,-7.618719E3,-1.2439087E3,-3.0620532E3,3.2955188E2,1.6308862E3,-4.989E1],"categories":[],"categories_nodes":[],"categories_segments":[],"categories_sizes":[],"default_left":[0,0,0,0,0,0,0,0,0,0,0,0,0,0,0,0,0,0,0,0,0,0,0,0,0,0,0,0,0,0,0,0,0],"id":52,"left_children":[1,3,5,7,9,11,13,15,17,19,-1,-1,21,-1,23,-1,-1,25,27,29,31,-1,-1,-1,-1,-1,-1,-1,-1,-1,-1,-1,-1],"loss_changes":[2.2114945E11,1.8895446E10,7.5747066E10,7.7002097E9,8.3237386E9,1.9131259E10,1.468824E10,5.3802465E9,2.8053258E9,1.0131354E10,0E0,0E0,2.640497E10,0E0,1.6735093E10,0E0,0E0,3.200602E9,4.990644E9,3.305257E9,6.226186E8,0E0,0E0,0E0,0E0,0E0,0E0,0E0,0E0,0E0,0E0,0E0,0E0],"parents":[2147483647,0,0,1,1,2,2,3,3,4,4,5,5,6,6,7,7,8,8,9,9,12,12,14,14,17,17,18,18,19,19,20,20],"right_children":[2,4,6,8,10,12,14,16,18,20,-1,-1,22,-1,24,-1,-1,26,28,30,32,-1,-1,-1,-1,-1,-1,-1,-1,-1,-1,-1,-1],"split_conditions":[5.4E1,2.8E1,3.8E0,2.5E0,3E0,1.15E2,4.1E1,1.3E1,1.39E2,1.4E2,2.8031887E3,4.29106E3,1.32E2,1.422765E3,2.04E2,-2.5068582E3,1.3850812E3,3E0,1.61E2,5.2E1,3.1E0,-4.974287E3,2.4949688E3,1.216492E4,1.6951875E3,-4.4833335E3,-1.6041562E3,-7.618719E3,-1.2439087E3,-3.0620532E3,3.2955188E2,1.6308862E3,-4.989E1],"split_indices":[0,0,1,1,2,0,4,0,4,4,0,0,0,0,0,0,0,2,4,0,1,0,0,0,0,0,0,0,0,0,0,0,0],"split_type":[0,0,0,0,0,0,0,0,0,0,0,0,0,0,0,0,0,0,0,0,0,0,0,0,0,0,0,0,0,0,0,0,0],"sum_hessian":[4.5E1,2.9E1,1.6E1,1.8E1,1.1E1,9E0,7E0,5E0,1.3E1,1E1,1E0,4E0,5E0,1E0,6E0,4E0,1E0,9E0,4E0,7E0,3E0,2E0,3E0,5E0,1E0,5E0,4E0,3E0,1E0,6E0,1E0,2E0,1E0],"tree_param":{"num_deleted":"0","num_feature":"5","num_nodes":"33","size_leaf_vector":"1"}},{"base_weights":[2.1183557E4,-7.527664E3,1.441472E5,-6.387911E4,3.9935469E3,2.1901675E3,1.7394488E5,-3.3052383E4,-6.5403823E3,6.3897582E4,-1.0543164E4,1.1866299E4,1.64433E3,-6.1222758E4,2.3888738E3,6.073E2,5.2953076E3,-4.347377E4,7.510873E3,-4.2281064E3,-1.0045706E3,1.3800825E3,-3.2795E3,-7.964623E2,1.9532142E3],"categories":[],"categories_nodes":[],"categories_segments":[],"categories_sizes":[],"default_left":[0,0,0,0,0,0,0,0,0,0,0,0,0,0,0,0,0,0,0,0,0,0,0,0,0],"id":53,"left_children":[1,3,5,7,9,-1,11,13,-1,15,17,-1,-1,19,-1,-1,-1,21,23,-1,-1,-1,-1,-1,-1],"loss_changes":[1.4936343E11,2.2978396E10,1.9310952E10,4.7438336E9,2.6797912E10,0E0,1.5529329E10,1.2701003E10,0E0,6.965807E9,1.5189787E10,0E0,0E0,4.651479E8,0E0,0E0,0E0,7.948675E9,9.280944E9,0E0,0E0,0E0,0E0,0E0,0E0],"parents":[2147483647,0,0,1,1,2,2,3,3,4,4,6,6,7,7,9,9,10,10,13,13,17,17,18,18],"right_children":[2,4,6,8,10,-1,12,14,-1,16,18,-1,-1,20,-1,-1,-1,22,24,-1,-1,-1,-1,-1,-1],"split_conditions":[1.41E2,1E1,3E0,9E0,2E0,2.1901675E3,2.04E2,6E0,-6.5403823E3,1.3E1,7.3E1,1.1866299E4,1.64433E3,1.47E2,2.3888738E3,6.073E2,5.2953076E3,4.1E1,4.2E1,-4.2281064E3,-1.0045706E3,1.3800825E3,-3.2795E3,-7.964623E2,1.9532142E3],"split_indices":[0,0,2,0,3,0,0,0,0,0,4,0,0,4,0,0,0,4,0,0,0,0,0,0,0],"split_type":[0,0,0,0,0,0,0,0,0,0,0,0,0,0,0,0,0,0,0,0,0,0,0,0,0],"sum_hessian":[4.1E1,3.4E1,7E0,5E0,2.9E1,2E0,5E0,4E0,1E0,5E0,2.4E1,4E0,1E0,3E0,1E0,2E0,3E0,8E0,1.6E1,2E0,1E0,1E0,7E0,9E0,7E0],"tree_param":{"num_deleted":"0","num_feature":"5","num_nodes":"25","size_leaf_vector":"1"}},{"base_weights":[1.7952715E4,-7.906164E3,2.2956744E4,-4.912177E4,4.1947867E4,-3.3008234E4,-9.054825E3,1.3054901E4,9.374125E4,-4.5600152E4,8.170229E3,4.369958E4,-2.3832572E4,6.0302197E3,1.5950024E3,-4.274451E3,-1.9338383E3,-1.485868E3,1.8497217E3,3.1597837E3,-5.7134436E2,-4.7901113E3,2.2876912E3],"categories":[],"categories_nodes":[],"categories_segments":[],"categories_sizes":[],"default_left":[0,0,0,0,0,0,0,0,0,0,0,0,0,0,0,0,0,0,0,0,0,0,0],"id":54,"left_children":[1,3,-1,5,7,9,-1,11,13,15,17,19,21,-1,-1,-1,-1,-1,-1,-1,-1,-1,-1],"loss_changes":[4.273611E11,9.041541E10,0E0,3.4384085E10,2.8705505E10,1.1779912E10,0E0,1.686714E10,5.0732237E8,3.531522E9,5.2409544E9,4.317914E9,2.7333724E10,0E0,0E0,0E0,0E0,0E0,0E0,0E0,0E0,0E0,0E0],"parents":[2147483647,0,0,1,1,3,3,4,4,5,5,7,7,8,8,9,9,10,10,11,11,12,12],"right_children":[2,4,-1,6,8,10,-1,12,14,16,18,20,22,-1,-1,-1,-1,-1,-1,-1,-1,-1,-1],"split_conditions":[7.8E0,4.7E1,2.2956744E4,5.5E0,4.2E0,3.6E0,-9.054825E3,7.8E1,1.81E2,1E1,3E0,3.8E0,1.32E2,6.0302197E3,1.5950024E3,-4.274451E3,-1.9338383E3,-1.485868E3,1.8497217E3,3.1597837E3,-5.7134436E2,-4.7901113E3,2.2876912E3],"split_indices":[1,0,0,1,1,1,0,0,0,0,2,1,0,0,0,0,0,0,0,0,0,0,0],"split_type":[0,0,0,0,0,0,0,0,0,0,0,0,0,0,0,0,0,0,0,0,0,0,0],"sum_hessian":[4.4E1,4.2E1,2E0,2.3E1,1.9E1,2.1E1,2E0,1.3E1,6E0,1.6E1,5E0,7E0,6E0,5E0,1E0,4E0,1.2E1,2E0,3E0,6E0,1E0,3E0,3E0],"tree_param":{"num_deleted":"0","num_feature":"5","num_nodes":"23","size_leaf_vector":"1"}},{"base_weights":[2.0255674E4,-5.6324336E3,2.2038475E4,-4.098944E4,5.217473E4,-2.629558E4,-8.692631E3,1.5974983E4,1.0984515E5,-6.579935E4,-1.5104857E4,3.9574402E3,-2.200884E4,8.0386836E3,2.4631724E3,-1.5360088E3,-5.0439263E3,-2.268341E3,6.8259204E2,2.6251826E3,-3.4238518E3],"categories":[],"categories_nodes":[],"categories_segments":[],"categories_sizes":[],"default_left":[0,0,0,0,0,0,0,0,0,0,0,0,0,0,0,0,0,0,0,0,0],"id":55,"left_children":[1,3,-1,5,7,9,-1,11,13,15,17,-1,19,-1,-1,-1,-1,-1,-1,-1,-1],"loss_changes":[3.8840343E11,8.593804E10,0E0,3.587969E10,3.1647695E10,9.615928E9,0E0,2.2335373E10,4.460765E9,1.5193211E9,1.2453086E10,0E0,1.8633878E10,0E0,0E0,0E0,0E0,0E0,0E0,0E0,0E0],"parents":[2147483647,0,0,1,1,3,3,4,4,5,5,7,7,8,8,9,9,10,10,12,12],"right_children":[2,4,-1,6,8,10,-1,12,14,16,18,-1,20,-1,-1,-1,-1,-1,-1,-1,-1],"split_conditions":[7.8E0,5.2E1,2.2038475E4,5.5E0,3.8E0,7.1E1,-8.692631E3,3E0,1.36E2,5.6E1,1.3E1,3.9574402E3,7E1,8.0386836E3,2.4631724E3,-1.5360088E3,-5.0439263E3,-2.268341E3,6.8259204E2,2.6251826E3,-3.4238518E3],"split_indices":[1,0,0,1,1,4,0,3,4,4,0,0,4,0,0,0,0,0,0,0,0],"split_type":[0,0,0,0,0,0,0,0,0,0,0,0,0,0,0,0,0,0,0,0,0],"sum_hessian":[4.2E1,4E1,2E0,2.5E1,1.5E1,2.3E1,2E0,1E1,5E0,4E0,1.9E1,4E0,6E0,3E0,2E0,2E0,2E0,1E1,9E0,2E0,4E0],"tree_param":{"num_deleted":"0","num_feature":"5","num_nodes":"21","size_leaf_vector":"1"}},{"base_weights":[2.0632E4,-6.120177E3,2.1156936E4,-1.8457906E4,1.03365E5,-4.8004723E4,3.5259106E3,7.28703E3,1.473255E3,-5.5677793E4,1.7825475E3,1.5110132E4,-4.9484562E4,-1.8694353E3,-3.7422168E3,-8.20765E1,4.3875225E3,-4.42023E3,6.921975E2],"categories":[],"categories_nodes":[],"categories_segments":[],"categories_sizes":[],"default_left":[0,0,0,0,0,0,0,0,0,0,0,0,0,0,0,0,0,0,0],"id":56,"left_children":[1,3,-1,5,7,9,11,-1,-1,13,-1,15,17,-1,-1,-1,-1,-1,-1],"loss_changes":[3.5740942E11,5.3238243E10,0E0,2.2903579E10,2.7192033E9,1.0598695E10,1.3643505E10,0E0,0E0,3.5416474E8,0E0,1.730766E10,6.753327E9,0E0,0E0,0E0,0E0,0E0,0E0],"parents":[2147483647,0,0,1,1,3,3,4,4,5,5,6,6,9,9,11,11,12,12],"right_children":[2,4,-1,6,8,10,12,-1,-1,14,-1,16,18,-1,-1,-1,-1,-1,-1],"split_conditions":[7.8E0,1.79E2,2.1156936E4,2.8E1,2.04E2,4.6E0,1.15E2,7.28703E3,1.473255E3,2.5E0,1.7825475E3,8E1,1.32E2,-1.8694353E3,-3.7422168E3,-8.20765E1,4.3875225E3,-4.42023E3,6.921975E2],"split_indices":[1,0,0,0,0,1,0,0,0,1,0,0,0,0,0,0,0,0,0],"split_type":[0,0,0,0,0,0,0,0,0,0,0,0,0,0,0,0,0,0,0],"sum_hessian":[3.9E1,3.7E1,2E0,3.4E1,3E0,1.4E1,2E1,2E0,1E0,1.3E1,1E0,1.7E1,3E0,4E0,9E0,1.4E1,3E0,2E0,1E0],"tree_param":{"num_deleted":"0","num_feature":"5","num_nodes":"19","size_leaf_vector":"1"}},{"base_weights":[-2.877496E3,-1.6171664E4,1.8259627E4,-6.108227E4,2.0724271E4,-2.393227E4,-7.794782E4,1.1106334E4,4.250781E3,1.3296719E3,-3.9887234E3,-5.5871508E4,-8.416227E3,1.6014429E4,-2.9061523E3,-8.147786E2,2.2762874E3,-5.0825146E3,-2.2108252E3,2.4330525E3,3.8474887E2],"categories":[],"categories_nodes":[],"categories_segments":[],"categories_sizes":[],"default_left":[0,0,0,0,0,0,0,0,0,0,0,0,0,0,0,0,0,0,0,0,0],"id":57,"left_children":[1,3,-1,5,7,9,11,13,-1,15,-1,17,-1,19,-1,-1,-1,-1,-1,-1,-1],"loss_changes":[1.968709E11,7.748875E10,0E0,1.1292189E10,1.1747003E10,8.686845E9,1.1424842E10,7.4971653E9,0E0,3.7900283E9,0E0,3.4620375E9,0E0,4.923117E9,0E0,0E0,0E0,0E0,0E0,0E0,0E0],"parents":[2147483647,0,0,1,1,3,3,4,4,5,5,6,6,7,7,9,9,11,11,13,13],"right_children":[2,4,-1,6,8,10,12,14,-1,16,-1,18,-1,20,-1,-1,-1,-1,-1,-1,-1],"split_conditions":[2.95E2,2.8E1,1.8259627E4,1E0,4E0,1.33E2,4E0,1.66E2,4.250781E3,4E0,-3.9887234E3,3E0,-8.416227E3,6.3E1,-2.9061523E3,-8.147786E2,2.2762874E3,-5.0825146E3,-2.2108252E3,2.4330525E3,3.8474887E2],"split_indices":[0,0,0,3,2,4,2,4,0,2,0,3,0,4,0,0,0,0,0,0,0],"split_type":[0,0,0,0,0,0,0,0,0,0,0,0,0,0,0,0,0,0,0,0,0],"sum_hessian":[4.6E1,4.5E1,1E0,2E1,2.5E1,7E0,1.3E1,2.2E1,3E0,5E0,2E0,1.1E1,2E0,2.1E1,1E0,4E0,1E0,3E0,8E0,5E0,1.6E1],"tree_param":{"num_deleted":"0","num_feature":"5","num_nodes":"21","size_leaf_vector":"1"}},{"base_weights":[4.736564E3,-1.7120084E4,1.9860443E4,-2.9478455E4,5.417943E4,-4.9609117E4,-7.873872E3,6.598875E2,3.5725974E3,-1.5265045E4,-6.3237645E4,2.8984548E3,-4.1929927E3,4.2131625E2,-2.0241459E3,-2.5069087E3,-5.6101064E3,-4.290056E3,6.888496E2],"categories":[],"categories_nodes":[],"categories_segments":[],"categories_sizes":[],"default_left":[0,0,0,0,0,0,0,0,0,0,0,0,0,0,0,0,0,0,0],"id":58,"left_children":[1,3,-1,5,7,9,11,-1,-1,13,15,17,-1,-1,-1,-1,-1,-1,-1],"loss_changes":[3.4083268E11,4.1248694E10,0E0,1.657105E10,9.6646554E8,8.395854E9,1.3562249E10,0E0,0E0,3.118487E9,5.1841147E9,1.2314309E10,0E0,0E0,0E0,0E0,0E0,0E0,0E0],"parents":[2147483647,0,0,1,1,3,3,4,4,5,5,6,6,9,9,10,10,11,11],"right_children":[2,4,-1,6,8,10,12,-1,-1,14,16,18,-1,-1,-1,-1,-1,-1,-1],"split_conditions":[7.74E0,1.32E2,1.9860443E4,2.8E1,3E0,2.5E0,1.15E2,6.598875E2,3.5725974E3,1.47E2,1.39E2,5.6E1,-4.1929927E3,4.2131625E2,-2.0241459E3,-2.5069087E3,-5.6101064E3,-4.290056E3,6.888496E2],"split_indices":[1,0,0,0,1,1,0,0,0,4,4,4,0,0,0,0,0,0,0],"split_type":[0,0,0,0,0,0,0,0,0,0,0,0,0,0,0,0,0,0,0],"sum_hessian":[4.6E1,4.4E1,2E0,3.8E1,6E0,1.9E1,1.9E1,1E0,5E0,6E0,1.3E1,1.7E1,2E0,3E0,3E0,9E0,4E0,1E0,1.6E1],"tree_param":{"num_deleted":"0","num_feature":"5","num_nodes":"19","size_leaf_vector":"1"}},{"base_weights":[-3.8461833E3,-1.9397434E4,9.390941E3,-1.2177164E4,-8.314064E4,-1.8479525E4,2.7607668E3,-7.917236E3,1.8989774E3,-6.7567173E3,-3.365949E4,2.5793054E2,-4.4713813E3,-2.4519727E3,2.0170387E3],"categories":[],"categories_nodes":[],"categories_segments":[],"categories_sizes":[],"default_left":[0,0,0,0,0,0,0,0,0,0,0,0,0,0,0],"id":59,"left_children":[1,3,-1,5,7,9,-1,-1,-1,11,13,-1,-1,-1,-1],"loss_changes":[1.1276443E11,1.7857552E10,0E0,1.4786187E10,2.6589456E10,6.0008847E9,0E0,0E0,0E0,1.6053445E10,8.646488E9,0E0,0E0,0E0,0E0],"parents":[2147483647,0,0,1,1,3,3,4,4,5,5,9,9,10,10],"right_children":[2,4,-1,6,8,10,-1,-1,-1,12,14,-1,-1,-1,-1],"split_conditions":[6.2E0,5.99E0,9.390941E3,5.232E0,5E0,1.36E2,2.7607668E3,-7.917236E3,1.8989774E3,4.2E0,4.6E0,2.5793054E2,-4.4713813E3,-2.4519727E3,2.0170387E3],"split_indices":[1,1,0,1,2,4,0,0,0,1,1,0,0,0,0],"split_type":[0,0,0,0,0,0,0,0,0,0,0,0,0,0,0],"sum_hessian":[4.3E1,4E1,3E0,3.7E1,3E0,3.4E1,3E0,2E0,1E0,2E1,1.4E1,1.8E1,2E0,1.3E1,1E0],"tree_param":{"num_deleted":"0","num_feature":"5","num_nodes":"15","size_leaf_vector":"1"}},{"base_weights":[5.4616294E3,-2.350744E4,1.034103E5,-4.7993402E4,-1.130523E4,7.3414086E4,1.1201287E4,-4.891345E3,-2.5229715E4,2.5808078E4,-1.7836088E4,7.57875E2,7.943303E4,-3.2613906E3,-2.2655056E3,-1.4995519E3,3.0643474E3,-3.8426936E3,-9.601219E3,6.096354E3,2.7484875E3,-1.2655712E3,1.50699E3,-1.1612654E3,1.2947181E3],"categories":[],"categories_nodes":[],"categories_segments":[],"categories_sizes":[],"default_left":[0,0,0,0,0,0,0,0,0,0,0,0,0,0,0,0,0,0,0,0,0,0,0,0,0],"id":60,"left_children":[1,3,5,7,9,11,-1,-1,13,15,17,-1,19,21,-1,-1,-1,-1,23,-1,-1,-1,-1,-1,-1],"loss_changes":[1.2444263E11,9.616038E9,1.1274658E10,6.338898E9,6.2774753E9,2.2892995E9,0E0,0E0,2.0787343E9,6.4102134E9,7.3760835E9,0E0,1.3101097E9,2.553856E9,0E0,0E0,0E0,0E0,6.1956086E9,0E0,0E0,0E0,0E0,0E0,0E0],"parents":[2147483647,0,0,1,1,2,2,3,3,4,4,5,5,8,8,9,9,10,10,12,12,13,13,18,18],"right_children":[2,4,6,8,10,12,-1,-1,14,16,18,-1,20,22,-1,-1,-1,-1,24,-1,-1,-1,-1,-1,-1],"split_conditions":[4.6E0,2.9E0,7.74E0,3E0,7E1,4.1E1,1.1201287E4,-4.891345E3,1.36E2,3.6E0,7.1E1,7.57875E2,1.36E2,1.33E2,-2.2655056E3,-1.4995519E3,3.0643474E3,-3.8426936E3,3E0,6.096354E3,2.7484875E3,-1.2655712E3,1.50699E3,-1.1612654E3,1.2947181E3],"split_indices":[1,1,1,3,4,4,0,0,4,1,4,0,4,4,0,0,0,0,2,0,0,0,0,0,0],"split_type":[0,0,0,0,0,0,0,0,0,0,0,0,0,0,0,0,0,0,0,0,0,0,0,0,0],"sum_hessian":[4.2E1,3.3E1,9E0,1E1,2.3E1,8E0,1E0,3E0,7E0,3E0,2E1,1E0,7E0,3E0,4E0,1E0,2E0,2E0,1.8E1,3E0,4E0,2E0,1E0,1.4E1,4E0],"tree_param":{"num_deleted":"0","num_feature":"5","num_nodes":"25","size_leaf_vector":"1"}},{"base_weights":[7.700673E3,-1.1378378E4,1.8242334E4,-3.2890168E4,3.2356348E4,-8.8697375E4,-1.927041E4,3.8405378E3,6.9638813E3,-1.454565E3,-5.804385E3,-4.1519383E4,1.2000755E4,3.4900474E3,-1.3107945E4,-6.7442145E2,-3.5137659E3,-2.978967E2,2.2047437E3,-3.960402E3,1.909959E3],"categories":[],"categories_nodes":[],"categories_segments":[],"categories_sizes":[],"default_left":[0,0,0,0,0,0,0,0,0,0,0,0,0,0,0,0,0,0,0,0,0],"id":61,"left_children":[1,3,-1,5,7,9,11,-1,13,-1,-1,15,17,-1,19,-1,-1,-1,-1,-1,-1],"loss_changes":[2.8049827E11,4.5282378E10,0E0,2.2613344E10,1.2414056E10,7.6496896E8,1.928355E10,0E0,1.103995E10,0E0,0E0,7.5986473E9,5.220229E9,0E0,2.1119582E10,0E0,0E0,0E0,0E0,0E0,0E0],"parents":[2147483647,0,0,1,1,3,3,4,4,5,5,6,6,8,8,11,11,12,12,14,14],"right_children":[2,4,-1,6,8,10,12,-1,14,-1,-1,16,18,-1,20,-1,-1,-1,-1,-1,-1],"split_conditions":[7.8E0,6.8E1,1.8242334E4,6.9E1,7E1,5E1,2.8E1,3.8405378E3,7.8E1,-1.454565E3,-5.804385E3,2.5E0,4.7E1,3.4900474E3,1.32E2,-6.7442145E2,-3.5137659E3,-2.978967E2,2.2047437E3,-3.960402E3,1.909959E3],"split_indices":[1,0,0,4,4,4,0,0,0,0,0,1,0,0,0,0,0,0,0,0,0],"split_type":[0,0,0,0,0,0,0,0,0,0,0,0,0,0,0,0,0,0,0,0,0],"sum_hessian":[4.8E1,4.6E1,2E0,3.1E1,1.5E1,5E0,2.6E1,6E0,9E0,1E0,4E0,1.5E1,1.1E1,2E0,7E0,6E0,9E0,7E0,4E0,3E0,4E0],"tree_param":{"num_deleted":"0","num_feature":"5","num_nodes":"21","size_leaf_vector":"1"}},{"base_weights":[-5.901276E3,-1.637216E4,8.76891E3,-4.1715617E4,-8.436668E3,1.79291E3,-6.335021E4,-1.971933E4,2.8501387E3,-2.445615E4,-5.767814E3,-2.3814844E3,-3.365749E4,-3.0195337E3,5.7391876E2,-7.523634E2,2.3426382E3,-2.704182E3,-9.96694E2],"categories":[],"categories_nodes":[],"categories_segments":[],"categories_sizes":[],"default_left":[0,0,0,0,0,0,0,0,0,0,0,0,0,0,0,0,0,0,0],"id":62,"left_children":[1,3,-1,5,7,-1,9,11,-1,13,-1,15,17,-1,-1,-1,-1,-1,-1],"loss_changes":[7.403707E10,8.2959084E9,0E0,1.738284E10,2.2395494E10,0E0,7.848614E9,6.927917E9,0E0,4.881956E9,0E0,6.38073E9,2.3638282E9,0E0,0E0,0E0,0E0,0E0,0E0],"parents":[2147483647,0,0,1,1,3,3,4,4,6,6,7,7,9,9,11,11,12,12],"right_children":[2,4,-1,6,8,-1,10,12,-1,14,-1,16,18,-1,-1,-1,-1,-1,-1],"split_conditions":[6.2E0,7.1E1,8.76891E3,4.1E1,4.6E0,1.79291E3,4.2E0,1.36E2,2.8501387E3,3.65E0,-5.767814E3,3E0,1.47E2,-3.0195337E3,5.7391876E2,-7.523634E2,2.3426382E3,-2.704182E3,-9.96694E2],"split_indices":[1,4,0,4,1,0,1,4,0,1,0,2,4,0,0,0,0,0,0],"split_type":[0,0,0,0,0,0,0,0,0,0,0,0,0,0,0,0,0,0,0],"sum_hessian":[4.4E1,4.2E1,2E0,9E0,3.3E1,2E0,7E0,2.8E1,5E0,4E0,3E0,1.3E1,1.5E1,2E0,2E0,1.1E1,2E0,8E0,7E0],"tree_param":{"num_deleted":"0","num_feature":"5","num_nodes":"19","size_leaf_vector":"1"}},{"base_weights":[2.3469672E4,3.6854124E3,1.716188E4,-3.8713965E4,1.205999E4,5.791625E3,-5.999117E3,-5.4349497E3,7.178478E4,-1.1420325E3,1.721195E3,1.8123129E4,-2.706016E4,5.571429E3,2.4341956E3,1.8382675E3,-2.2785938E3,-2.1067952E3,2.3184937E2],"categories":[],"categories_nodes":[],"categories_segments":[],"categories_sizes":[],"default_left":[0,0,0,0,0,0,0,0,0,0,0,0,0,0,0,0,0,0,0],"id":63,"left_children":[1,3,-1,5,7,9,-1,11,13,-1,-1,15,17,-1,-1,-1,-1,-1,-1],"loss_changes":[2.2231315E11,1.5025042E10,0E0,1.9667493E10,3.6961006E10,3.387911E9,0E0,1.4754972E10,1.4949622E9,0E0,0E0,1.099248E10,3.871228E9,0E0,0E0,0E0,0E0,0E0,0E0],"parents":[2147483647,0,0,1,1,3,3,4,4,5,5,7,7,8,8,11,11,12,12],"right_children":[2,4,-1,6,8,10,-1,12,14,-1,-1,16,18,-1,-1,-1,-1,-1,-1],"split_conditions":[7.74E0,5.6E1,1.716188E4,4E0,4.6E0,3E0,-5.999117E3,1.36E2,1.36E2,-1.1420325E3,1.721195E3,3.8E0,3.5E0,5.571429E3,2.4341956E3,1.8382675E3,-2.2785938E3,-2.1067952E3,2.3184937E2],"split_indices":[1,4,0,2,1,3,0,4,4,0,0,1,1,0,0,0,0,0,0],"split_type":[0,0,0,0,0,0,0,0,0,0,0,0,0,0,0,0,0,0,0],"sum_hessian":[4.2E1,4E1,2E0,6E0,3.4E1,4E0,2E0,2.7E1,7E0,2E0,2E0,1.3E1,1.4E1,3E0,4E0,1.1E1,2E0,1.1E1,3E0],"tree_param":{"num_deleted":"0","num_feature":"5","num_nodes":"19","size_leaf_vector":"1"}},{"base_weights":[8.871868E3,-1.0319233E4,1.64754E4,-5.2151652E4,2.3228064E4,-3.6341758E4,-7.4614297E3,2.7620698E3,6.3814797E4,-4.250949E4,1.870258E3,3.8344164E4,-1.1135817E4,5.145E2,7.0481195E4,-1.0969902E3,-3.1115605E3,-3.5844562E2,3.055035E3,6.845756E2,-1.5991738E3,5.4143135E3,1.9862118E3],"categories":[],"categories_nodes":[],"categories_segments":[],"categories_sizes":[],"default_left":[0,0,0,0,0,0,0,0,0,0,0,0,0,0,0,0,0,0,0,0,0,0,0],"id":64,"left_children":[1,3,-1,5,7,9,-1,11,13,15,-1,17,19,-1,21,-1,-1,-1,-1,-1,-1,-1,-1],"loss_changes":[2.272082E11,6.0152697E10,0E0,1.7170313E10,1.9759288E10,8.4038697E9,0E0,8.833763E9,2.34163E9,2.676048E9,0E0,3.0902712E9,4.852006E9,0E0,2.1821727E9,0E0,0E0,0E0,0E0,0E0,0E0,0E0,0E0],"parents":[2147483647,0,0,1,1,3,3,4,4,5,5,7,7,8,8,9,9,11,11,12,12,14,14],"right_children":[2,4,-1,6,8,10,-1,12,14,16,-1,18,20,-1,22,-1,-1,-1,-1,-1,-1,-1,-1],"split_conditions":[7.8E0,2.8E1,1.64754E4,5.5E0,4.5E0,4.6E0,-7.4614297E3,6.3E1,4.1E1,2.5E0,1.870258E3,5E1,4.4E1,5.145E2,1.36E2,-1.0969902E3,-3.1115605E3,-3.5844562E2,3.055035E3,6.845756E2,-1.5991738E3,5.4143135E3,1.9862118E3],"split_indices":[1,0,0,1,1,1,0,4,4,1,0,0,0,0,4,0,0,0,0,0,0,0,0],"split_type":[0,0,0,0,0,0,0,0,0,0,0,0,0,0,0,0,0,0,0,0,0,0,0],"sum_hessian":[4.3E1,4.1E1,2E0,1.8E1,2.3E1,1.6E1,2E0,1.6E1,7E0,1.5E1,1E0,4E0,1.2E1,1E0,6E0,5E0,1E1,1E0,3E0,5E0,7E0,3E0,3E0],"tree_param":{"num_deleted":"0","num_feature":"5","num_nodes":"23","size_leaf_vector":"1"}},{"base_weights":[4.470461E3,-1.4601317E4,1.5996495E5,-4.621964E4,3.5052083E3,7.763294E4,1.467879E4,-2.5780457E4,-7.1629736E3,-3.6405438E4,1.4230603E4,5.6308745E3,8.6963995E2,-3.2968137E4,1.8141506E3,1.3824E4,-3.8985693E3,3.7889594E4,6.6376666E2,-2.4316282E3,1.93075E2,3.12225E1,1.2129375E3,-3.476925E2,2.6974841E3,-3.2607363E3,7.9843066E2],"categories":[],"categories_nodes":[],"categories_segments":[],"categories_sizes":[],"default_left":[0,0,0,0,0,0,0,0,0,0,0,0,0,0,0,0,0,0,0,0,0,0,0,0,0,0,0],"id":65,"left_children":[1,3,5,7,9,11,-1,13,-1,15,17,-1,-1,19,-1,21,-1,23,25,-1,-1,-1,-1,-1,-1,-1,-1],"loss_changes":[1.35785734E11,2.3634428E10,1.5867388E10,1.9353213E10,1.2075622E10,2.7349545E9,0E0,6.2309724E9,0E0,9.508776E9,7.0363587E9,0E0,0E0,3.412778E9,0E0,2.4457562E8,0E0,2.7307878E9,1.1155778E10,0E0,0E0,0E0,0E0,0E0,0E0,0E0,0E0],"parents":[2147483647,0,0,1,1,2,2,3,3,4,4,5,5,7,7,9,9,10,10,13,13,15,15,17,17,18,18],"right_children":[2,4,6,8,10,12,-1,14,-1,16,18,-1,-1,20,-1,22,-1,24,26,-1,-1,-1,-1,-1,-1,-1,-1],"split_conditions":[1.79E2,2.3E1,2.95E2,5.5E0,2.75E0,2.04E2,1.467879E4,4.6E0,-7.1629736E3,3.5E1,7E1,5.6308745E3,8.6963995E2,1.3E1,1.8141506E3,2.5E1,-3.8985693E3,5E1,7.1E1,-2.4316282E3,1.93075E2,3.12225E1,1.2129375E3,-3.476925E2,2.6974841E3,-3.2607363E3,7.9843066E2],"split_indices":[0,0,0,1,1,0,0,1,0,0,4,0,0,0,0,0,0,0,4,0,0,0,0,0,0,0,0],"split_type":[0,0,0,0,0,0,0,0,0,0,0,0,0,0,0,0,0,0,0,0,0,0,0,0,0,0,0],"sum_hessian":[4.4E1,4E1,4E0,1.4E1,2.6E1,3E0,1E0,1.2E1,2E0,5E0,2.1E1,2E0,1E0,1.1E1,1E0,2E0,3E0,7E0,1.4E1,9E0,2E0,1E0,1E0,1E0,6E0,2E0,1.2E1],"tree_param":{"num_deleted":"0","num_feature":"5","num_nodes":"27","size_leaf_vector":"1"}},{"base_weights":[1.5158741E4,-3.9444382E3,1.550683E4,-6.6527586E4,5.10871E3,-1.0238574E3,-5.6289014E3,-1.4541624E4,6.349208E4,2.8577961E3,-1.8764758E4,4.252392E3,1.506325E3,-2.9832944E3,-6.525705E2],"categories":[],"categories_nodes":[],"categories_segments":[],"categories_sizes":[],"default_left":[0,0,0,0,0,0,0,0,0,0,0,0,0,0,0],"id":66,"left_children":[1,3,-1,5,7,-1,-1,9,11,-1,13,-1,-1,-1,-1],"loss_changes":[1.9157031E11,2.2436276E10,0E0,5.147744E9,4.1077125E10,0E0,0E0,7.9828536E9,7.7072794E8,0E0,5.808561E9,0E0,0E0,0E0,0E0],"parents":[2147483647,0,0,1,1,3,3,4,4,7,7,8,8,10,10],"right_children":[2,4,-1,6,8,-1,-1,10,12,-1,14,-1,-1,-1,-1],"split_conditions":[7.8E0,5.6E1,1.550683E4,4.2E0,4.6E0,-1.0238574E3,-5.6289014E3,6.3E1,1.51E2,2.8577961E3,7.1E1,4.252392E3,1.506325E3,-2.9832944E3,-6.525705E2],"split_indices":[1,4,0,1,1,0,0,4,4,0,4,0,0,0,0],"split_type":[0,0,0,0,0,0,0,0,0,0,0,0,0,0,0],"sum_hessian":[4E1,3.8E1,2E0,4E0,3.4E1,2E0,2E0,2.6E1,8E0,1E0,2.5E1,6E0,2E0,4E0,2.1E1],"tree_param":{"num_deleted":"0","num_feature":"5","num_nodes":"15","size_leaf_vector":"1"}},{"base_weights":[6.4154E3,-8.513104E3,1.488655E4,-2.9291922E4,4.0538348E4,-2.0773246E4,-6.794004E3,-2.155228E3,4.8565438E4,-2.312257E4,1.6321556E3,1.9294031E4,5.4794547E4,-2.158535E3,-6.6762854E2,2.76034E3,-1.8252262E3,4.1023174E3,1.9250825E3],"categories":[],"categories_nodes":[],"categories_segments":[],"categories_sizes":[],"default_left":[0,0,0,0,0,0,0,0,0,0,0,0,0,0,0,0,0,0,0],"id":67,"left_children":[1,3,-1,5,7,9,-1,-1,11,13,-1,15,17,-1,-1,-1,-1,-1,-1],"loss_changes":[1.8612663E11,5.112977E10,0E0,2.2675235E10,1.0950625E10,4.348454E9,0E0,0E0,1.4954783E9,4.533371E9,0E0,6.711332E9,1.1980554E9,0E0,0E0,0E0,0E0,0E0,0E0],"parents":[2147483647,0,0,1,1,3,3,4,4,5,5,8,8,9,9,11,11,12,12],"right_children":[2,4,-1,6,8,10,-1,-1,12,14,-1,16,18,-1,-1,-1,-1,-1,-1],"split_conditions":[7.8E0,6.8E1,1.488655E4,5.5E0,2.4E0,5.232E0,-6.794004E3,-2.155228E3,3.2E0,2.4E1,1.6321556E3,3E0,4.8E0,-2.158535E3,-6.6762854E2,2.76034E3,-1.8252262E3,4.1023174E3,1.9250825E3],"split_indices":[1,0,0,1,1,1,0,0,1,0,0,1,1,0,0,0,0,0,0],"split_type":[0,0,0,0,0,0,0,0,0,0,0,0,0,0,0,0,0,0,0],"sum_hessian":[5E1,4.8E1,2E0,3.4E1,1.4E1,3.2E1,2E0,1E0,1.3E1,3.1E1,1E0,3E0,1E1,1.4E1,1.7E1,2E0,1E0,5E0,5E0],"tree_param":{"num_deleted":"0","num_feature":"5","num_nodes":"19","size_leaf_vector":"1"}},{"base_weights":[3.252125E3,-1.1665134E4,1.6279962E5,-4.437186E4,7.4410356E3,6.8992664E4,1.3326614E4,-3.7445356E3,-6.83738E4,-5.2277363E3,2.7495295E4,5.46873E3,7.4061E2,-2.1440457E3,1.7508694E3,-1.5825914E4,-8.863348E4,1.7930367E3,-3.7374263E3,3.542018E3,1.0400089E3,-1.9416281E2,-1.1366312E3,-1.7296843E3,-6.4074014E3,-1.4699707E3,7.060578E2,-1.6614666E3,1.7706675E3],"categories":[],"categories_nodes":[],"categories_segments":[],"categories_sizes":[],"default_left":[0,0,0,0,0,0,0,0,0,0,0,0,0,0,0,0,0,0,0,0,0,0,0,0,0,0,0,0,0],"id":68,"left_children":[1,3,5,7,9,11,-1,13,15,17,19,-1,-1,-1,-1,21,23,25,-1,-1,27,-1,-1,-1,-1,-1,-1,-1,-1],"loss_changes":[1.1137961E11,2.7200885E10,6.9310136E9,1.5346127E10,7.257498E9,2.6397645E9,0E0,8.4157107E9,9.243324E9,7.3229256E9,9.11652E9,0E0,0E0,0E0,0E0,9.571469E7,4.5224673E9,4.7466783E9,0E0,0E0,6.543245E9,0E0,0E0,0E0,0E0,0E0,0E0,0E0,0E0],"parents":[2147483647,0,0,1,1,2,2,3,3,4,4,5,5,7,7,8,8,9,9,10,10,15,15,16,16,17,17,20,20],"right_children":[2,4,6,8,10,12,-1,14,16,18,20,-1,-1,-1,-1,22,24,26,-1,-1,28,-1,-1,-1,-1,-1,-1,-1,-1],"split_conditions":[1.79E2,2.4E1,2.95E2,1E0,6.8E1,1.81E2,1.3326614E4,2.75E0,2.35E0,6E1,3E0,5.46873E3,7.4061E2,-2.1440457E3,1.7508694E3,2.3E0,9E0,2.9E0,-3.7374263E3,3.542018E3,3.2E0,-1.9416281E2,-1.1366312E3,-1.7296843E3,-6.4074014E3,-1.4699707E3,7.060578E2,-1.6614666E3,1.7706675E3],"split_indices":[0,0,0,3,0,0,0,1,1,0,3,0,0,0,0,1,0,1,0,0,1,0,0,0,0,0,0,0,0],"split_type":[0,0,0,0,0,0,0,0,0,0,0,0,0,0,0,0,0,0,0,0,0,0,0,0,0,0,0,0,0],"sum_hessian":[4.5E1,4.2E1,3E0,1.5E1,2.7E1,2E0,1E0,6E0,9E0,1.7E1,1E1,1E0,1E0,3E0,3E0,3E0,6E0,1.6E1,1E0,4E0,6E0,1E0,2E0,2E0,4E0,4E0,1.2E1,3E0,3E0],"tree_param":{"num_deleted":"0","num_feature":"5","num_nodes":"29","size_leaf_vector":"1"}},{"base_weights":[1.4328905E4,-5.383882E2,1.395372E4,-1.1773085E4,5.289372E4,-5.2808726E3,-6.563667E4,5.8795123E2,5.7650195E4,-4.852093E2,-3.3763723E3,-6.265948E3,1.5225225E3,4.5660957E3,1.4871749E3,-5.182992E2,1.8619093E3],"categories":[],"categories_nodes":[],"categories_segments":[],"categories_sizes":[],"default_left":[0,0,0,0,0,0,0,0,0,0,0,0,0,0,0,0,0],"id":69,"left_children":[1,3,-1,5,7,9,11,-1,13,15,-1,-1,-1,-1,-1,-1,-1],"loss_changes":[1.5261837E11,2.763593E10,0E0,1.2941748E10,1.074903E9,8.5316116E9,1.6773556E10,0E0,2.3584256E9,8.747804E9,0E0,0E0,0E0,0E0,0E0,0E0,0E0],"parents":[2147483647,0,0,1,1,3,3,4,4,5,5,6,6,8,8,9,9],"right_children":[2,4,-1,6,8,10,12,-1,14,16,-1,-1,-1,-1,-1,-1,-1],"split_conditions":[7.8E0,1.32E2,1.395372E4,5.99E0,3E0,1.15E2,2.3E1,5.8795123E2,1.36E2,6.8E1,-3.3763723E3,-6.265948E3,1.5225225E3,4.5660957E3,1.4871749E3,-5.182992E2,1.8619093E3],"split_indices":[1,0,0,1,1,0,0,0,4,0,0,0,0,0,0,0,0],"split_type":[0,0,0,0,0,0,0,0,0,0,0,0,0,0,0,0,0],"sum_hessian":[4.6E1,4.4E1,2E0,3.7E1,7E0,3.4E1,3E0,1E0,6E0,3.2E1,2E0,2E0,1E0,3E0,3E0,2.6E1,6E0],"tree_param":{"num_deleted":"0","num_feature":"5","num_nodes":"17","size_leaf_vector":"1"}},{"base_weights":[8.66277E3,-6.871837E3,1.339558E4,-2.4058053E4,1.3235903E4,-4.0919695E4,-1.0295589E4,2.5255598E4,-6.329423E4,-1.5346014E4,-4.526623E3,-2.4932234E4,7.9028037E3,-3.2694487E3,3.8629574E4,-4.376606E2,-5.25882E3,-3.7246519E3,1.6732968E2,-1.7278874E2,-1.6602706E3,5.020125E1,1.508985E3,9.060604E2,3.3151006E3],"categories":[],"categories_nodes":[],"categories_segments":[],"categories_sizes":[],"default_left":[0,0,0,0,0,0,0,0,0,0,0,0,0,0,0,0,0,0,0,0,0,0,0,0,0],"id":70,"left_children":[1,3,-1,5,7,9,11,13,15,17,-1,19,21,-1,23,-1,-1,-1,-1,-1,-1,-1,-1,-1,-1],"loss_changes":[1.4821605E11,1.4832621E10,0E0,4.9160356E9,1.999591E10,7.671303E9,3.9261222E9,2.1302436E10,3.4519306E9,6.1054044E9,0E0,4.0351488E8,8.3204006E8,0E0,5.423153E9,0E0,0E0,0E0,0E0,0E0,0E0,0E0,0E0,0E0,0E0],"parents":[2147483647,0,0,1,1,3,3,4,4,5,5,6,6,7,7,8,8,9,9,11,11,12,12,14,14],"right_children":[2,4,-1,6,8,10,12,14,16,18,-1,20,22,-1,24,-1,-1,-1,-1,-1,-1,-1,-1,-1,-1],"split_conditions":[7.8E0,3.5E0,1.339558E4,3E0,4E0,2.75E0,2.9E0,5.6E1,4.6E0,6.9E1,-4.526623E3,2.3E0,3.2E0,-3.2694487E3,4.6E0,-4.376606E2,-5.25882E3,-3.7246519E3,1.6732968E2,-1.7278874E2,-1.6602706E3,5.020125E1,1.508985E3,9.060604E2,3.3151006E3],"split_indices":[1,1,0,3,3,1,1,4,1,4,0,1,1,0,1,0,0,0,0,0,0,0,0,0,0],"split_type":[0,0,0,0,0,0,0,0,0,0,0,0,0,0,0,0,0,0,0,0,0,0,0,0,0],"sum_hessian":[4.3E1,4.1E1,2E0,2.2E1,1.9E1,9E0,1.3E1,1.7E1,2E0,6E0,3E0,7E0,6E0,2E0,1.5E1,1E0,1E0,1E0,5E0,1E0,6E0,5E0,1E0,7E0,8E0],"tree_param":{"num_deleted":"0","num_feature":"5","num_nodes":"25","size_leaf_vector":"1"}},{"base_weights":[-3.6607986E3,-1.3356175E4,1.210635E4,-6.143167E4,-8.0828887E3,-1.9406624E2,-4.785156E3,2.5116636E3,-1.6658795E4,-3.7521895E4,-7.6472036E3,-4.136864E2,-2.97977E3,-1.8245054E1,-3.6837231E3],"categories":[],"categories_nodes":[],"categories_segments":[],